<?xml version="1.0"?>
<opencv_storage>
<my_svm type_id="opencv-ml-svm">
  <svm_type>C_SVC</svm_type>
  <kernel><type>LINEAR</type></kernel>
  <C>1.0000000000000001e-001</C>
  <term_criteria><epsilon>2.2204460492503131e-016</epsilon>
    <iterations>1000</iterations></term_criteria>
  <var_all>5120</var_all>
  <var_count>5120</var_count>
  <class_count>2</class_count>
  <class_labels type_id="opencv-matrix">
    <rows>1</rows>
    <cols>2</cols>
    <dt>i</dt>
    <data>
      0 1</data></class_labels>
  <sv_total>1</sv_total>
  <support_vectors>
    <_>
      8.62123631e-003 -1.64174219e-003 0. 0. 9.55153722e-003
      5.98990917e-003 0. 0. 3.35352146e-003 1.06394629e-003
      5.91672258e-003 -1.40641001e-003 1.37813706e-002 4.91945306e-003
      1.87907275e-003 0. 1.63973926e-003 -2.08187755e-003
      2.90539395e-003 -5.34191902e-004 9.39920646e-005 -2.63449200e-003
      1.08610811e-002 0. 8.11414735e-004 -9.69302899e-004
      -2.49230722e-003 1.41691808e-002 -1.51786124e-002 -6.72120694e-003
      1.77935641e-002 0. 1.48018927e-003 6.08563016e-004 1.92356929e-002
      6.86429441e-003 -6.63163699e-003 -3.79068591e-003 1.08756952e-003
      0. -5.05603245e-003 9.33822710e-004 5.31776436e-003
      1.29980119e-002 -9.57175996e-003 -7.89036788e-003 3.28357704e-003
      0. -8.60373583e-003 -3.46466270e-003 9.28279851e-003
      6.33926876e-003 8.23843060e-004 -2.78659281e-003 -1.14184041e-002
      0. -1.26361789e-003 -1.22910808e-003 4.42027766e-003
      -5.55836642e-003 -1.64838613e-003 2.13880907e-003 -4.84869070e-003
      0. 8.01474787e-004 2.00426276e-003 2.22280659e-002
      -4.10528900e-003 2.83804443e-003 -1.36815012e-003 -6.30796887e-003
      0. 4.10349481e-003 3.29854200e-003 1.02562001e-002 3.32033122e-003
      -1.25853252e-003 7.30101299e-003 -7.99967069e-003 0.
      -2.72524380e-003 -2.53933412e-003 1.82458255e-002 9.67985578e-003
      5.80611266e-003 5.93416719e-003 -1.29171405e-002 0.
      1.06780296e-002 -6.87534641e-003 1.93516836e-002 1.59846991e-002
      1.28123425e-002 7.11756013e-003 -6.43410580e-003 0.
      1.45664914e-002 -4.85950103e-003 9.23142675e-003 1.37203271e-002
      9.55782086e-003 1.50362933e-002 1.22259744e-002 0. 3.27178906e-003
      9.09836381e-004 4.94555384e-003 4.97083552e-003 -1.36806411e-004
      8.06433801e-003 2.03079218e-003 0. -1.01331470e-003
      -2.50972784e-003 1.50962826e-002 1.01150917e-002 4.29681456e-003
      5.34410356e-003 -1.01886773e-002 0. -1.78188155e-003
      -8.46057478e-003 8.73572752e-003 5.49976202e-003 4.17830935e-003
      8.47706571e-003 -3.97266634e-003 0. 1.26495538e-003
      -6.72421046e-003 6.77373586e-003 -7.13684363e-004 2.33136583e-003
      6.07267860e-003 3.99050303e-004 0. 1.11873467e-002 5.97024453e-004
      -8.71257018e-003 5.00981370e-003 -3.31522711e-003 9.08110011e-003
      -2.45643617e-003 0. 6.41106907e-003 -1.52815331e-003
      2.87219463e-003 -7.97895901e-003 2.38327123e-003 4.62972792e-003
      2.18484644e-003 0. -2.21499847e-003 4.20862436e-003
      8.29774793e-003 -4.05279221e-003 7.17204122e-004 4.74831415e-003
      2.80301028e-004 0. 2.95427418e-003 8.41336884e-003 8.54300056e-003
      6.29608426e-003 -2.50534620e-003 2.57999520e-003 -1.35791833e-002
      0. -1.97267439e-003 1.03405863e-003 8.84492882e-003
      1.15856004e-003 -4.18879790e-004 5.63635724e-003 5.11305407e-004
      0. -3.94475227e-003 7.32792262e-003 1.27337594e-002
      3.52241122e-003 2.26337858e-003 1.49015267e-003 -1.69749360e-003
      0. -1.19525651e-002 8.45518894e-003 1.02354530e-002
      1.17272176e-002 -5.30270813e-003 3.17800720e-003 -9.95702017e-003
      0. -1.14818076e-002 6.25751447e-003 9.65414010e-003
      2.02665869e-002 -1.61358819e-003 1.54771563e-002 1.30290994e-002
      0. -6.46166410e-003 2.48066802e-003 6.22664928e-004
      1.56533644e-002 1.50565954e-003 1.16536897e-002 1.31675117e-002 0.
      -8.82125180e-003 6.77212374e-003 1.10760089e-002 -3.45463923e-004
      -3.82634881e-003 5.23390528e-003 1.21054810e-003 0.
      -1.29837962e-003 1.30682811e-002 1.14934351e-002 5.53190988e-003
      -9.24354070e-004 5.88077074e-003 -4.58753295e-003 0.
      3.33305285e-003 7.28783756e-003 8.87313485e-003 1.59481596e-002
      4.51374147e-003 3.77089716e-003 -4.97881789e-003 0.
      -7.19630020e-003 8.13005026e-003 2.20335973e-003 1.15696080e-002
      1.78094502e-004 4.22373926e-003 1.02041047e-002 0. 2.04614014e-003
      5.01645217e-003 4.50727995e-003 3.55558726e-003 -1.94072374e-003
      1.30966422e-003 2.37150341e-002 0. -8.31321068e-003
      -3.40204244e-003 3.86989489e-003 1.03368470e-002 -3.24343517e-003
      -1.05656395e-002 4.29302547e-003 0. 1.58446934e-003
      5.85042359e-003 -2.38850806e-003 7.80674396e-003 -5.24898572e-003
      -8.09225254e-003 5.71520254e-003 0. 6.62208069e-004
      -1.64508342e-003 -1.10186602e-003 -4.30036336e-003
      -2.89848819e-003 5.86498110e-003 6.28074352e-003 0.
      5.26098115e-003 -3.63857672e-003 4.93176049e-003 3.48635251e-003
      -1.25584053e-002 -2.82735075e-003 2.40301471e-002 0.
      -6.20490732e-003 6.80568116e-003 -4.45553474e-003 -2.60865083e-003
      -7.87254330e-003 -1.13417255e-003 2.01231949e-002 0.
      6.75185677e-003 2.51177000e-003 7.78010115e-003 -7.58501841e-003
      -9.17697046e-003 5.76583948e-003 5.72055532e-003 0.
      7.26407208e-003 8.97689536e-003 3.61435086e-004 3.47905909e-003
      -4.82849451e-003 1.03895860e-002 2.34886515e-003 0.
      8.30381177e-003 1.59326009e-002 -7.82395992e-003 3.44125601e-003
      5.69935981e-003 8.13711260e-004 4.29428602e-003 0. 2.70530093e-003
      4.44131251e-003 -1.34617952e-003 6.55770628e-003 1.74770392e-002
      -4.05053422e-003 -2.90698931e-003 0. -2.64584494e-004
      5.02545433e-003 -6.83798688e-004 -4.94314125e-003 1.54416487e-002
      -8.21974594e-003 -4.54815541e-004 0. 1.14193726e-002
      8.62623658e-003 1.10281091e-002 -2.45249015e-003 1.25139058e-002
      -5.75504545e-003 4.54761274e-003 0. 4.80602356e-003
      5.18745463e-003 -7.81149697e-003 -4.06830292e-003 5.75139653e-003
      -9.55806245e-005 5.02317259e-003 0. -2.24442934e-004
      -2.30477424e-003 -1.64762954e-004 -1.23917190e-002 5.76253748e-003
      4.01010830e-003 -3.25352838e-003 0. 4.37510060e-003
      6.23232080e-003 4.69217030e-003 -8.57118051e-003 7.85408169e-003
      -4.60180407e-003 -9.36366525e-003 0. 4.45545139e-003
      1.01458048e-003 -3.31717101e-003 -5.22396481e-003 7.46818678e-003
      -9.88590298e-004 -3.31895263e-003 0. 9.69223864e-003
      1.12031968e-002 -7.29436520e-003 -6.30482333e-003 3.07815801e-003
      -1.53345836e-003 5.14548877e-003 0. 6.40594726e-003
      2.21191775e-002 -9.35683027e-003 -8.84622801e-003 -3.32104624e-003
      -9.67167411e-003 -6.41604513e-003 0. 1.40361935e-002
      2.44600233e-003 -5.71967894e-003 -1.25402221e-002 4.85353684e-003
      1.38583768e-003 -3.33637954e-003 0. 8.61097127e-003
      1.19960774e-002 3.38301691e-003 -1.68891586e-002 9.39987600e-003
      8.41973070e-003 2.48402916e-003 0. 2.62756948e-003 7.37153133e-003
      2.86758906e-004 -5.41915232e-003 6.60676230e-003 5.68493502e-003
      -8.95497017e-003 0. 5.19930152e-003 5.28769521e-003
      -4.46990645e-003 -2.37909408e-004 4.37043316e-004 6.13199081e-003
      8.81244952e-004 0. 1.55533524e-002 5.65910572e-003
      -2.11190502e-003 7.03748409e-003 6.04874734e-003 9.99341346e-003
      2.76688254e-003 0. 5.20075718e-003 1.07268114e-002
      -4.35235631e-003 5.27748093e-003 1.14409893e-003 6.79394417e-003
      3.26793408e-003 0. 4.32895683e-003 1.07632652e-002
      -9.34250839e-003 4.00512526e-003 1.78192591e-003 1.75936217e-003
      -6.68772217e-003 0. 1.20484876e-002 7.06181582e-003
      -8.80048028e-004 5.63329086e-003 6.42851321e-003 -3.48419708e-004
      -4.17954847e-003 0. 9.66946315e-003 4.65654396e-003
      -6.92324433e-003 8.00776575e-003 6.91318186e-003 7.57373753e-004
      1.71631822e-004 0. 1.10329743e-002 1.28370309e-002
      -8.50823533e-004 8.81550275e-003 -2.10444280e-003 -9.47334396e-004
      8.91897455e-003 0. 1.07443193e-002 6.26125885e-003
      -9.18378530e-004 4.35182871e-003 -4.14522178e-003 7.84286670e-003
      -1.69027585e-003 0. -1.45045202e-003 -2.89223297e-003
      -7.60821206e-003 -9.60806094e-004 -1.19995754e-002 6.83162315e-003
      3.10483342e-003 0. 3.78005812e-003 1.22535927e-002
      -6.61194045e-003 -1.98708396e-004 -1.40283047e-003 9.57966503e-003
      2.31001503e-003 0. 1.03171207e-002 1.43094826e-002
      -3.97961680e-003 2.17419770e-003 -8.14157445e-003 1.68900134e-003
      -1.51576172e-003 0. 8.41439795e-003 1.10050058e-002
      -8.69627297e-003 -2.64472887e-003 -5.60358400e-003 7.24267971e-004
      3.95410601e-003 0. 4.28608619e-003 -1.16589549e-003
      -2.67434004e-003 -5.70456218e-003 2.24201847e-003 4.40206472e-003
      2.60223937e-003 0. 1.16284322e-002 1.05856154e-002 3.36630316e-003
      -3.80741013e-003 4.13068337e-003 8.54070950e-003 -1.95034454e-003
      0. 2.35933140e-002 2.52808053e-002 -1.06970221e-002
      -3.80493491e-003 1.65288546e-003 7.37652788e-003 2.87360675e-003
      0. 7.46869203e-003 1.67605020e-002 5.22506307e-004
      -4.05468885e-003 4.95038228e-003 1.56255579e-003 1.46262906e-002
      0. 1.77369011e-003 1.15335863e-002 1.00223785e-002
      -1.42512110e-003 1.44507848e-002 1.47052314e-002 1.43345054e-002
      0. 7.52638839e-003 1.93449315e-002 2.21221074e-002 5.17461798e-004
      2.20364123e-003 1.03169270e-002 1.41885467e-002 0. 1.46929724e-002
      2.36115931e-003 -4.83860075e-003 1.16102258e-003 4.20701399e-004
      1.55292545e-002 6.19727280e-003 0. 2.47900747e-002
      -2.31416966e-003 -1.94440829e-003 6.76499447e-003 -1.27397971e-002
      7.23724812e-003 2.97770719e-003 0. 2.25001927e-002
      -1.08976597e-002 -7.48504046e-003 -1.90606900e-003
      -8.69621523e-003 9.57153365e-003 -1.68046216e-004 0.
      5.68959164e-003 7.21531129e-003 -8.65855068e-003 -7.43053752e-005
      -6.52614422e-003 6.10767351e-003 -3.34022916e-003 0.
      6.84765493e-003 1.16176493e-002 -8.16012360e-003 -9.40619688e-003
      -8.28495808e-003 -1.37222521e-002 8.60946998e-003 0.
      -5.77003136e-003 1.06388060e-002 1.56788004e-003 -6.40054140e-003
      1.67257141e-003 8.85578711e-003 -3.69052752e-004 0.
      9.41542722e-003 -1.06160331e-003 -2.66761682e-003 8.79104156e-003
      4.08132281e-003 -9.30071343e-003 -4.47091414e-003 0.
      6.31310325e-003 3.75971431e-003 -1.60579977e-003 4.81835846e-003
      -2.76239635e-003 -1.01094972e-003 -7.95522891e-003 0.
      1.07143950e-002 5.61826304e-003 9.00591351e-003 6.74820738e-003
      2.03183461e-002 2.39487505e-003 3.07308417e-003 0. 7.93415681e-003
      -2.17708549e-003 1.12338457e-002 -1.42326988e-002 5.40084485e-003
      4.94719436e-003 7.73825031e-003 0. 1.35976747e-002 1.55563664e-003
      0. 0. 5.68144629e-003 -2.05593067e-003 0. 0. -1.27855479e-003
      1.02627778e-003 0. 0. 1.05851218e-002 -5.32241445e-003 0. 0.
      -5.18281944e-004 -7.16521405e-003 -4.90714330e-003
      -4.28808341e-003 -3.46916006e-003 -4.84175095e-003
      -7.53729418e-003 0. 6.95027132e-003 -7.75295962e-003
      3.88576719e-003 1.03190809e-003 -5.77109859e-005 -8.34034756e-003
      1.26656489e-002 0. -2.19903653e-003 -9.55255330e-003
      -9.49117914e-003 -1.13391075e-002 -3.26895923e-003
      -6.31892681e-003 -1.60758067e-002 0. 1.17483747e-003
      -2.98812776e-003 3.12988413e-003 5.55467966e-004 7.52269756e-003
      5.35990437e-003 -3.76892020e-003 0. 6.63125236e-003
      -5.19983331e-003 1.12602138e-003 -5.17510995e-003 -6.57981145e-004
      8.50746781e-003 1.90071028e-003 0. 2.18408951e-003 1.17909377e-002
      -7.08365301e-003 -4.93095256e-003 -4.69477242e-003 6.87985972e-004
      -1.33854046e-003 0. 7.30842911e-003 5.26868971e-004
      -4.43648454e-003 4.71046986e-003 -3.70919728e-003 6.36309991e-003
      -1.54536508e-003 0. 6.65396452e-003 1.67698804e-002
      -4.29811375e-003 6.17426541e-003 3.69418086e-003 2.39521004e-002
      3.00989160e-003 0. 1.34357112e-003 2.60725198e-003 1.39296462e-003
      -2.04917183e-003 5.52254636e-003 1.28824292e-002 1.10637369e-002
      0. 1.22046378e-002 -1.75116444e-003 6.40324177e-003
      9.16581601e-004 5.13536856e-003 9.46026482e-003 2.01707473e-003 0.
      2.68138666e-003 7.64188031e-003 1.12835867e-002 -1.26896929e-002
      2.02497598e-002 4.91088070e-003 1.89050578e-003 0. 1.23712104e-002
      3.01843800e-004 1.07408212e-002 -7.60949159e-004 1.39246956e-002
      3.05393856e-004 2.44877744e-003 0. -2.58337846e-003
      -1.63959770e-003 1.09170629e-002 4.27082088e-003 4.14309325e-003
      1.60073582e-002 -7.94618204e-003 0. -1.62323769e-002
      1.23379414e-003 4.69125202e-003 4.66135889e-003 -2.77920160e-003
      1.51479542e-002 -1.06320539e-002 0. -3.65047739e-003
      1.69518904e-003 1.94337219e-002 5.34057617e-003 3.90907377e-003
      2.09170394e-002 -7.67252455e-003 0. -3.06986913e-004
      5.06453030e-003 1.64924227e-002 8.17223825e-003 -2.22588322e-004
      1.24492468e-002 -4.81958222e-003 0. -3.41660902e-003
      -1.28592942e-002 1.36449449e-002 -1.00342295e-004 -1.61213730e-003
      -4.14511748e-003 -3.33794602e-003 0. 1.57590563e-004
      -3.31311813e-003 1.71817653e-002 1.22116338e-002 1.31108705e-002
      1.04167138e-003 -1.61558762e-002 0. 8.61756853e-004
      4.86766966e-003 3.08661647e-002 1.74786001e-002 1.25755032e-003
      4.21052473e-003 -8.19133781e-003 0. 5.73429186e-003
      1.57878455e-003 1.19279958e-002 4.61315690e-003 -9.57542658e-003
      1.07618272e-002 4.06298740e-003 0. 5.32024540e-004 1.37421594e-003
      8.78435001e-003 -4.68875375e-003 3.04277032e-003 -1.55427027e-004
      1.45436917e-003 0. 1.00799911e-002 -5.42276027e-003
      1.26877530e-002 -7.64972158e-003 -3.77722736e-003 1.53291635e-002
      3.71395075e-003 0. 6.30597398e-003 -5.41925838e-005
      1.54567626e-003 -5.27953962e-003 -1.06091695e-002 9.51537862e-003
      -7.33303046e-003 0. 2.90210731e-003 -1.01218726e-002
      5.51939849e-003 3.84616037e-003 4.73659532e-003 2.19182912e-004
      -3.63860419e-003 0. 3.73515580e-003 -2.20803529e-004
      -1.83389429e-003 4.75859176e-003 1.11831573e-003 2.22097081e-003
      -1.22053577e-002 0. 5.60160901e-004 8.54342594e-004
      -8.33798945e-003 2.09459057e-003 -8.37641768e-003 -3.29508097e-004
      6.50846679e-003 0. -4.38967533e-003 6.68157358e-003
      -3.87910008e-003 8.22814181e-003 -7.04329275e-003 -2.50497507e-003
      6.07554475e-003 0. -3.91504634e-003 2.21545971e-003
      9.18332208e-003 2.09409487e-003 -6.85200468e-003 -6.64176699e-003
      1.45857921e-003 0. -2.60349177e-003 1.00441361e-002
      3.08456249e-003 -2.61676288e-003 -9.25676618e-003 -2.97077495e-004
      6.22544670e-003 0. -2.51870602e-003 -1.91105204e-003
      8.75302870e-003 1.38256128e-003 -5.32262400e-003 6.57912577e-003
      -6.20014640e-003 0. 5.12473984e-003 -1.38726237e-003
      1.55351628e-002 2.05026148e-003 -4.57977643e-003 -9.02890097e-005
      6.31654682e-003 0. -1.30054133e-003 -1.92934915e-003
      4.30967752e-003 1.20704109e-003 -4.45671380e-003 5.28897857e-003
      1.54918712e-002 0. -6.24231808e-003 7.28337467e-003
      2.55957129e-003 1.90753471e-002 -3.28450953e-003 -4.36980324e-003
      8.16472992e-003 0. -5.23812417e-003 -7.07118306e-003
      -3.32461786e-004 4.74607619e-003 3.50093772e-003 -8.72123893e-003
      1.33830616e-002 0. -3.63800558e-003 -7.41453748e-003
      1.16528682e-002 2.35160161e-003 -1.09122209e-002 -9.32479929e-003
      -4.95603122e-003 0. -4.41530999e-003 -5.14363591e-003
      9.55863763e-003 1.02605615e-002 -5.16866846e-003 -3.28297680e-003
      -2.65012076e-003 0. -1.48153200e-003 -8.97619873e-003
      -7.63736665e-003 -1.03485212e-003 3.03215533e-003 -1.14214905e-002
      -1.59955886e-003 0. -4.97548794e-003 -3.15807736e-003
      7.66612031e-003 2.96796416e-003 -3.73446121e-004 -5.02979103e-003
      -8.64384323e-003 0. 7.97740836e-003 1.22330990e-003
      -1.32940123e-002 -1.29703917e-002 -6.10273331e-004 4.02190583e-003
      2.70222290e-003 0. -9.73590836e-003 9.63627361e-003
      -9.14457662e-004 -8.25911853e-003 8.70441459e-003 9.47099552e-003
      2.35768338e-003 0. -2.42535002e-003 1.09952316e-002
      -3.43085919e-003 2.96440558e-003 3.41995707e-004 1.17848972e-002
      -2.46880366e-003 0. -6.92201499e-003 -1.40118843e-003
      -1.15945229e-004 -1.46441748e-002 -8.35359748e-003
      -1.93256536e-003 -3.36723076e-003 0. 2.70598545e-003
      6.14587683e-003 3.77339241e-003 -7.40010617e-003 -3.22204223e-003
      -2.90307635e-003 -1.21573517e-002 0. 1.36772366e-002
      -1.56122749e-003 -4.14201012e-003 -3.13299079e-003
      -5.96537022e-003 -8.41840077e-003 -1.79954339e-002 0.
      5.59264887e-003 7.66000710e-004 -1.04145221e-002 -2.12928629e-003
      -8.28157365e-003 1.32867163e-002 -1.43440962e-002 0.
      9.50022507e-003 5.11929160e-003 4.97930334e-004 -1.60776742e-003
      -5.55051444e-003 1.04085393e-002 3.59252328e-003 0.
      7.70242605e-003 1.11214938e-002 8.97821970e-003 3.15836212e-003
      1.23227695e-002 4.57034633e-003 2.05077091e-003 0. 1.68754831e-002
      -2.17601890e-003 1.83361082e-003 7.87402596e-003 3.49421357e-003
      -5.75561076e-003 -1.85825862e-003 0. 3.86860943e-003
      1.80084119e-003 1.01344357e-003 9.81632806e-003 1.05202934e-002
      5.78984898e-003 2.02824920e-003 0. -6.03734632e-004
      7.39481626e-003 -3.89092555e-003 -4.55083838e-003 1.11842006e-002
      8.89798254e-003 3.00599635e-003 0. 2.26069172e-003
      -1.94841623e-003 -3.83851049e-003 -9.83339734e-003 1.51699921e-003
      -2.45220447e-003 -4.32422478e-003 0. -7.66953314e-003
      4.04097419e-003 -5.50798373e-003 3.17524886e-003 -9.49603098e-004
      -4.07233182e-003 -7.53756752e-003 0. 3.47972324e-004
      1.65236497e-003 -2.44036131e-003 4.20710864e-003 -1.03350542e-003
      6.25526358e-004 5.29398164e-003 0. 8.29542242e-003
      -3.22245178e-003 -8.01879447e-003 7.65575329e-003 -9.67472047e-003
      2.59511662e-003 4.38283337e-003 0. 1.06329573e-002 6.18951302e-003
      -1.64481776e-003 -2.90654926e-003 -5.71036013e-003 1.43876364e-002
      -1.52013730e-003 0. 5.64486813e-003 8.66573211e-003
      -4.87819518e-004 3.10226646e-003 -1.41728553e-003 9.66747466e-005
      4.50612418e-003 0. 6.01749867e-003 4.66182595e-003
      -7.37344660e-003 1.13755353e-002 3.24789714e-003 1.58870826e-004
      1.26362895e-004 0. 4.63964324e-003 1.99307245e-003
      -4.82032169e-003 -9.27126035e-004 5.97633794e-003 1.68652658e-003
      9.03348532e-003 0. 2.88568763e-003 6.32540509e-003 7.49596069e-003
      4.95988410e-003 4.96390741e-003 5.82786789e-003 1.38368150e-002 0.
      1.93448365e-002 1.72315130e-003 -5.58328675e-003 -7.89396837e-003
      6.82388572e-003 1.41816903e-002 1.79718155e-002 0. 2.14788620e-003
      2.34010629e-003 -2.03023199e-003 2.31979857e-003 -3.58905410e-004
      4.83545521e-003 8.13075714e-003 0. 1.19937425e-002
      -2.17443914e-004 2.15200917e-003 -5.00815175e-003 -3.21010221e-003
      1.49185944e-003 7.52141187e-003 0. 6.05026865e-003 4.94145043e-003
      3.62270977e-003 -8.70301854e-004 5.17575722e-003 -9.41862061e-004
      -1.98139623e-003 0. 1.60461646e-002 -2.92073353e-004
      -2.37808490e-004 -1.87154755e-003 -8.41727573e-003 1.38553162e-003
      -1.45991088e-003 0. 3.10969283e-003 -3.82825313e-003
      -8.41835700e-003 -5.25511894e-003 5.29789738e-003 1.02011347e-002
      1.33133465e-002 0. 1.40508516e-002 -1.21006684e-003
      -1.36463670e-003 4.57096566e-003 -2.66636675e-003 2.64159194e-003
      -5.17311273e-003 0. 1.41407689e-002 -1.01382900e-002
      8.24379548e-003 7.81600829e-003 -9.37720574e-003 3.66225868e-005
      1.60239078e-002 0. 5.64283831e-003 -7.07726926e-004
      4.12192225e-004 6.10847259e-003 -8.73208698e-003 -5.82686218e-004
      4.49049432e-004 0. -4.18482488e-003 -7.06735114e-003
      -5.21528162e-003 8.07903521e-003 5.31780580e-003 -5.79225016e-004
      1.53820422e-002 0. 4.64506913e-003 -1.27644213e-002
      -2.52574869e-003 1.58448312e-002 -4.31652507e-003 7.85309169e-003
      8.70916806e-003 0. 1.17364700e-003 2.08841953e-002 2.10137479e-003
      2.40101945e-003 5.54086966e-003 4.04432276e-003 7.28667341e-003 0.
      2.71819299e-003 -4.69561573e-003 -1.41111703e-003 6.45201607e-003
      2.75437930e-003 -4.81445255e-004 4.52396227e-003 0.
      -2.23376486e-003 1.59833580e-003 -7.74866715e-003 4.78888443e-003
      1.11619867e-002 4.98892320e-003 7.79717509e-003 0.
      -3.37924599e-003 -8.15402158e-003 -4.92855581e-003
      -6.21092413e-003 3.86490254e-003 1.86068844e-003 4.99160495e-004
      0. 7.71379215e-004 -1.35471215e-002 -6.03523897e-003
      -4.89445869e-003 2.28126068e-003 3.52132460e-003 7.48816924e-003
      0. -1.66284759e-003 2.80628505e-004 3.22914240e-003
      8.83318484e-004 -6.02032943e-003 5.20937191e-003 -3.09970317e-004
      0. 7.55085098e-003 3.47562227e-003 6.31706207e-005
      -5.98020898e-003 9.74864233e-003 -4.00733063e-003 2.41780817e-003
      0. 3.96975130e-003 -4.44027223e-003 -8.62898305e-003
      -8.72984715e-003 -3.84755223e-003 6.40986487e-003 -4.08708956e-003
      0. 9.40095354e-003 1.23892995e-002 0. 0. 8.23193137e-003
      -2.02058144e-002 0. 0. 3.37262941e-003 -1.13651045e-002 0. 0.
      3.62433074e-003 1.52304098e-002 0. 0. 1.00394036e-003
      4.87717427e-003 8.86260346e-003 5.25066815e-003 -4.75669187e-003
      -7.35764997e-003 1.17501654e-002 0. 5.43551287e-003
      1.16134877e-003 9.12137795e-003 3.80907813e-003 -5.67167485e-003
      -6.94414927e-003 5.01133129e-003 0. -3.59450141e-003
      -6.89618941e-003 -7.30580091e-003 1.08558517e-002 2.94850301e-003
      2.28622695e-003 5.02407644e-003 0. -9.90965962e-003
      -6.88243611e-003 2.84646288e-003 2.61902413e-003 5.68615366e-003
      -3.68666206e-003 6.76106289e-003 0. 1.59974047e-003
      -1.34674436e-003 1.18704308e-002 3.73676163e-003 -4.16212110e-003
      -1.35702034e-003 -1.87998510e-003 0. -3.89484293e-003
      -1.09681720e-002 -1.30158765e-002 -3.52789299e-003
      -6.71479292e-003 -9.15928558e-003 -4.27288190e-003 0.
      -8.42993148e-003 -5.20901475e-003 1.99348200e-002 8.15866794e-003
      -4.49088356e-003 1.08296622e-003 1.29968133e-002 0.
      -3.43488320e-003 1.37455044e-002 8.59859493e-003 3.07835196e-003
      -5.63054346e-003 -1.13608092e-002 6.55961689e-003 0.
      -4.84915124e-003 9.59427375e-003 7.81940389e-003 -7.80891720e-003
      -2.26152806e-005 -1.39198173e-003 2.83472240e-003 0.
      1.32943632e-003 4.67439508e-003 2.41505122e-003 7.53572304e-003
      -3.26715922e-003 -4.89856023e-003 1.46821374e-002 0.
      -6.41565165e-003 1.69525505e-003 3.85767571e-003 1.56901008e-003
      -4.35613142e-003 -1.17579373e-002 5.35411201e-003 0.
      -7.20284460e-003 -3.72760277e-003 5.25247259e-003 5.41713228e-003
      -9.17334459e-004 7.71172391e-003 -1.01774733e-003 0.
      -8.84379959e-004 7.05462508e-003 4.04724479e-003 4.32950119e-003
      -2.84415251e-003 1.27957743e-002 -4.71275343e-005 0.
      -5.01232594e-003 1.20453804e-003 1.22722308e-003 1.14799961e-002
      1.52013125e-003 1.58787556e-002 -5.78126078e-003 0.
      -6.45110616e-003 5.95412124e-003 9.80018545e-003 1.25653222e-002
      1.41004473e-003 3.40105477e-003 -3.18212039e-003 0.
      -7.77744397e-004 7.22556841e-003 1.00077353e-002 8.52240995e-003
      2.39078188e-003 -2.70986650e-003 -2.00560223e-003 0.
      -2.45737913e-003 -1.32130156e-003 5.84366312e-003 1.69462506e-002
      5.04696136e-003 -9.08470887e-004 5.69386000e-004 0.
      5.13337506e-003 1.51351122e-002 1.72215595e-003 2.78509525e-003
      -8.09516665e-003 -5.01722610e-003 1.09889768e-002 0.
      5.38550317e-004 -5.35169151e-003 9.78809129e-003 7.01246271e-003
      -3.41028324e-003 -2.77489400e-003 8.45542364e-003 0.
      8.29240214e-003 -1.11418939e-003 4.25184192e-003 4.66535147e-003
      2.70345388e-003 -8.60298611e-003 -1.45134528e-003 0.
      2.20335880e-003 2.05014385e-002 -3.00227106e-003 -4.12389170e-003
      7.25938380e-003 -4.18155873e-003 8.64505861e-003 0.
      5.83030749e-003 6.67867996e-003 8.90006544e-004 6.97790505e-003
      7.41431303e-003 1.00730574e-002 -2.02469085e-003 0.
      8.26533604e-003 3.00315744e-003 -1.12636643e-003 -4.92641050e-003
      3.69872176e-003 1.99192949e-003 -3.18776909e-003 0.
      3.17271519e-003 1.11467636e-003 4.80177230e-004 -7.55321933e-003
      5.66538237e-003 -4.46727732e-003 -3.40180309e-003 0.
      7.50747276e-003 -3.88926186e-004 -6.55248121e-004 8.19528475e-003
      4.81319614e-003 1.16870180e-002 7.99716637e-003 0. 2.65576621e-003
      8.04533251e-003 -3.97064723e-003 -9.36450670e-004 8.88329186e-003
      -2.46972870e-003 3.98919598e-004 0. -2.44073709e-003
      6.52577123e-003 1.60752365e-003 -5.64041222e-003 4.99536423e-003
      -5.60101261e-003 2.75212293e-003 0. 6.88988389e-003
      1.15856901e-002 -8.45823810e-003 1.29774865e-002 4.04201867e-003
      -6.48167043e-004 4.38698381e-003 0. 1.72116384e-002
      4.01212237e-005 -7.26693589e-003 4.72435867e-003 1.09120179e-003
      5.93363540e-004 -2.37821881e-003 0. -4.69136750e-003
      -7.79387634e-003 -3.65288201e-004 3.13052465e-003 -4.63435659e-003
      6.20351778e-003 -2.29226705e-003 0. -1.81679992e-004
      -8.59939959e-003 3.03705048e-004 2.29234528e-003 -7.14715663e-003
      -4.24650544e-003 4.54333815e-004 0. -3.49162408e-004
      4.31451574e-003 8.77457391e-003 3.38971335e-003 1.03188766e-004
      -1.99444219e-003 4.29381058e-003 0. -8.30714684e-003
      -5.69833582e-003 1.95349741e-004 -6.48454810e-003 5.33910934e-004
      1.42316672e-003 -6.65697549e-003 0. -1.24224639e-002
      -1.26952687e-002 -2.68183905e-003 5.98780764e-003 -1.13974204e-002
      1.99914491e-003 -7.83830823e-004 0. 8.09298642e-003
      3.98559408e-004 -3.27492855e-003 -4.44420660e-003 -6.34502154e-003
      -9.57657117e-003 4.57074353e-003 0. -4.09126718e-004
      -9.20585915e-003 -9.95675474e-003 1.36705325e-003 3.34729254e-003
      -1.61604059e-003 1.66119561e-002 0. 6.56110793e-003
      -1.12628564e-003 -8.14702827e-003 -6.48866035e-003 3.30503657e-003
      -2.53572222e-003 -1.39557302e-003 0. 1.19079286e-002
      -9.31253564e-003 8.07872601e-003 3.83198564e-003 7.06307078e-003
      -7.84336030e-003 1.12461168e-002 0. -1.36963353e-002
      -3.58601124e-003 -2.12076260e-003 -1.05811274e-002 1.33645777e-002
      -9.79583245e-004 -5.82979235e-004 0. -1.88507198e-003
      -1.59907609e-003 2.69720168e-003 -1.36043841e-003 -1.23154791e-002
      -2.23844848e-003 1.35189376e-003 0. 3.33787035e-003
      4.82691452e-003 -2.36194843e-004 2.64001754e-003 3.44621087e-003
      -8.29509553e-003 4.27606469e-003 0. 1.36330677e-002
      9.68556385e-003 3.86106945e-003 -3.44496896e-003 -6.18423568e-003
      6.20707287e-004 4.25303215e-003 0. 8.12168233e-003
      -1.13990121e-002 -2.56244373e-003 1.05151441e-002 5.34679694e-003
      -1.94667885e-003 3.06680286e-003 0. -2.19793292e-003
      5.25512500e-004 -2.11499911e-003 4.34434367e-003 1.37013914e-002
      3.77585879e-003 8.14565457e-003 0. -4.38871514e-003
      3.37270531e-003 3.39413830e-003 -2.81692529e-003 -4.59715957e-003
      5.92965726e-003 -3.54952482e-003 0. -1.86536126e-004
      6.41206512e-003 7.07047665e-003 -8.94681725e-004 -1.22579373e-003
      7.73945730e-003 9.56331380e-004 0. -8.04446917e-003
      3.49068060e-003 5.26349875e-004 -2.07244648e-005 2.78210291e-003
      2.09845300e-003 -1.58439984e-003 0. -6.70763990e-003
      -3.66155803e-003 1.39119336e-003 -1.50945573e-003 5.63092763e-003
      4.25234530e-003 4.36813338e-004 0. 5.10816695e-004 6.93070469e-003
      -9.82595328e-003 5.33837872e-003 -3.44701158e-003 -1.23913595e-002
      -3.54065420e-003 0. -2.62649427e-003 2.31233262e-003
      -1.48641597e-002 -4.22270317e-003 -2.94201518e-003
      -4.83353203e-003 2.00082199e-003 0. -3.85363027e-003
      6.68759644e-003 6.90025324e-003 -1.10798771e-003 1.44681078e-003
      2.13520234e-005 2.04052179e-004 0. -1.33777841e-003
      1.52666948e-003 6.53207069e-003 -1.04411418e-004 -4.73313825e-003
      6.94159418e-003 1.24489004e-003 0. 2.02414813e-003
      -1.48807904e-002 9.90783609e-003 4.00353828e-003 5.20381320e-004
      -8.79741681e-004 8.98696855e-003 0. 2.86528538e-003
      2.63169012e-003 -9.19863232e-004 3.00892745e-003 3.07694566e-003
      5.34654083e-003 3.86410276e-003 0. 1.08152453e-003
      -5.80458948e-003 -4.40254249e-003 -3.78215779e-003 3.34084989e-003
      1.05009070e-002 1.63956441e-003 0. 2.77731451e-004 3.43627343e-003
      -8.46422103e-004 6.18550181e-003 -7.75432854e-004 -1.71470223e-003
      -4.91092773e-003 0. -5.05635701e-003 2.11077812e-003
      -3.69563652e-003 -2.13266793e-003 -1.15067676e-004
      -1.00314552e-002 -4.99816472e-003 0. -5.69213415e-003
      2.87003489e-003 -6.63410081e-003 -7.82903098e-003 2.33207480e-003
      -2.45209038e-003 -6.38841279e-003 0. 5.60679752e-003
      5.98377408e-003 3.07411375e-003 2.62485410e-005 1.21985225e-003
      -5.56713121e-006 3.65917431e-003 0. 7.40408525e-003
      4.98175155e-003 1.05967093e-003 -4.64966334e-003 2.26733019e-003
      -4.87350859e-003 -6.19486556e-004 0. 5.91224292e-003
      -1.06144417e-003 2.94617680e-003 4.76612803e-003 1.93886005e-003
      -1.10784043e-002 -2.66923034e-003 0. 1.04541918e-002
      -6.33329991e-003 -3.91658570e-004 2.97851581e-003 1.48700806e-003
      8.53115169e-004 -3.31100100e-003 0. 7.65493745e-003
      9.33959335e-003 3.14187212e-003 6.53032679e-003 5.13802003e-003
      -2.26484356e-003 -4.55158297e-003 0. 7.07073323e-003
      9.03971493e-003 -1.34685694e-003 -7.62716355e-003 -1.53324835e-003
      -1.04916124e-002 -8.81822023e-004 0. 9.71782301e-003
      1.35824131e-002 2.43667769e-003 5.76628465e-003 -4.98234178e-004
      8.01741146e-003 7.20334123e-004 0. 1.47044044e-002 8.70337524e-003
      4.74758912e-003 5.93197951e-003 4.46902215e-003 -9.24606065e-005
      -2.05419771e-003 0. 2.50837463e-003 -1.07863406e-003
      -1.71331316e-003 1.38403138e-003 1.22081582e-002 -8.25160590e-004
      -2.36752676e-003 0. 3.49718635e-003 2.56030504e-002
      -3.55216980e-005 6.31073257e-003 5.03779016e-003 6.69608125e-003
      -2.94979545e-003 0. 7.92980019e-004 -4.99511790e-003
      1.45573926e-003 3.45159788e-003 5.16003696e-003 -5.95546979e-003
      -1.01525197e-002 0. 7.60653755e-003 -2.13467539e-003
      -1.76034379e-003 1.05989184e-002 2.37494917e-003 7.12132640e-003
      -3.81261948e-003 0. 1.51873017e-002 8.48802365e-003
      -4.52181883e-003 2.62989453e-003 1.17943704e-003 1.41884172e-002
      -4.75516031e-003 0. 1.31796887e-002 -3.48348892e-003
      -9.27290786e-003 -8.09546746e-003 1.08337961e-003 -3.94617295e-004
      -2.75520002e-003 0. 8.71111080e-003 -3.49477353e-003
      -6.66551944e-003 -1.71524077e-003 -5.38958528e-004 5.45024173e-003
      2.02832930e-003 0. 9.21254605e-003 7.79105863e-003 2.85756448e-003
      2.64019077e-003 5.50878840e-003 -6.77773438e-004 3.41481459e-003
      0. 3.20482370e-003 2.76681967e-003 5.18947886e-003 4.25269175e-003
      1.57217942e-002 -1.29068764e-002 2.64571118e-003 0.
      -4.04078187e-003 1.13298343e-002 1.18842360e-003 4.39370284e-003
      -4.34337789e-003 4.07114113e-003 9.56471544e-004 0.
      5.41367242e-003 3.76197509e-003 8.48306715e-003 -3.63671337e-003
      6.83978898e-003 -6.23748498e-003 1.02214031e-002 0.
      -3.85395065e-003 7.32965209e-003 5.12457546e-003 1.13265291e-002
      7.54117593e-003 4.98496927e-003 1.94594543e-003 0. 1.93027593e-002
      1.22993765e-002 0. 0. 2.48112692e-003 -5.56215458e-003 0. 0.
      -4.50507412e-003 9.59450472e-003 0. 0. 5.41428709e-003
      -1.06991560e-003 0. 0. -3.76863685e-003 6.22546021e-003
      -2.73173838e-003 -2.96614436e-003 -1.11087970e-002 2.18119123e-003
      -6.52125198e-003 0. -5.73291327e-004 1.52097661e-002
      -3.13605065e-003 -3.32185510e-003 -5.74707612e-003 8.55437759e-003
      3.94584099e-003 0. 7.27645401e-003 4.97018080e-003 2.13470776e-003
      -1.02134263e-002 7.71097839e-003 2.54971877e-004 4.29038238e-003
      0. -3.21710506e-003 -1.88370771e-003 3.08300392e-003
      -4.52937605e-003 5.21201314e-003 -6.36309432e-003 1.21790399e-004
      0. -9.10513103e-003 1.00671872e-002 7.31978007e-003
      -4.04035265e-004 9.92706884e-003 -1.07900277e-002 -2.57133786e-003
      0. -5.01324423e-003 1.17092545e-003 7.36283464e-003
      8.14319775e-003 -3.86298192e-003 1.95051357e-002 3.31253442e-003
      0. 6.19767280e-003 -2.56856298e-003 1.00464802e-002
      4.00007563e-003 8.26474279e-003 1.40450252e-002 2.88874283e-003 0.
      3.74611537e-003 -5.74395992e-003 1.53953524e-003 1.80047899e-002
      7.71246105e-003 2.48230854e-003 -6.25916943e-003 0.
      -8.32174905e-004 -1.01833325e-003 2.33212649e-003 5.81100769e-003
      7.76334293e-003 -4.49192151e-003 -3.36120091e-003 0.
      -1.56879600e-003 5.73965895e-004 -5.09845791e-004 4.95564612e-003
      2.68025091e-003 -7.51615921e-003 -3.32289864e-003 0.
      2.18005618e-003 -2.45175743e-003 -1.12444034e-003 8.19274783e-003
      2.18366692e-003 -5.41576929e-003 3.99857666e-003 0.
      2.11861974e-004 -1.33827573e-003 4.16484727e-005 1.94483332e-003
      5.93349384e-003 -2.75435462e-003 -8.84896237e-003 0.
      5.79552585e-003 -2.48173857e-003 7.65015045e-003 1.29337637e-002
      -3.94542841e-003 5.87826769e-004 -8.75280891e-003 0.
      -3.74274096e-003 -1.19772216e-003 -2.87948991e-004 1.02597009e-002
      -9.93055641e-004 5.77222381e-005 5.07412420e-004 0.
      -2.18055909e-003 -3.18727316e-003 -1.90041633e-003 1.77166816e-002
      1.87126815e-003 -8.34196107e-004 1.68342628e-002 0.
      1.95934251e-003 -1.14443339e-002 -5.48517448e-004 -1.08469627e-003
      6.59302576e-004 -2.59048166e-003 3.33263655e-003 0.
      9.48422682e-003 -2.59382115e-003 1.33257650e-003 1.11188600e-002
      -5.42429043e-004 6.09349739e-003 -9.02434345e-003 0.
      2.72487267e-003 1.17869458e-004 3.39444098e-003 1.87105662e-003
      -2.02386943e-003 1.03855412e-003 8.20582826e-003 0.
      -1.36227440e-003 3.91113665e-003 -1.21706137e-002 -3.24569846e-005
      -2.84256274e-003 1.51195598e-003 9.44056828e-003 0.
      7.76665006e-003 1.26243359e-003 -2.95548956e-003 1.10517414e-002
      -1.15377093e-002 7.92490318e-003 -3.47384531e-003 0.
      5.20909717e-003 7.04580592e-003 1.50125253e-003 4.79537575e-003
      4.07364545e-003 8.86656158e-003 4.63013118e-003 0.
      -7.22861756e-003 8.91825277e-003 1.12766875e-002 -7.17358757e-003
      6.19286718e-003 3.74111300e-003 5.86006977e-003 0. 1.46695785e-003
      4.37352201e-003 3.41601297e-003 5.46610961e-003 8.87788180e-003
      1.78051775e-003 4.34479071e-003 0. 7.93041289e-003 2.02901941e-003
      -3.45101277e-003 1.06257619e-002 -2.86421552e-003 3.66139761e-003
      -4.69829829e-004 0. 2.13692198e-003 6.42066123e-003
      -1.24250501e-002 5.77730639e-003 7.52618629e-003 6.01161784e-003
      -8.72769579e-003 0. 4.30714135e-004 9.82088689e-003
      -3.49950860e-003 -9.34556499e-003 7.14856898e-004 -4.96158667e-004
      -2.25092657e-003 0. 6.51894463e-003 7.79740699e-003
      -6.94503915e-003 -2.09124852e-003 3.55886901e-003 2.02597817e-003
      -1.65668654e-003 0. 2.53631175e-003 -1.11167645e-002
      -3.24829947e-003 4.29367926e-003 3.63574340e-003 3.48520628e-003
      -6.64321799e-003 0. -6.52842969e-003 4.77280747e-003
      4.45793336e-003 8.26201926e-004 -3.61742009e-003 1.12703571e-003
      7.35586090e-003 0. 8.36389791e-003 3.42012430e-003 8.57640989e-003
      5.63617377e-003 -2.17377464e-003 -4.67719510e-003 4.23596660e-003
      0. 1.21346442e-003 -2.91696121e-003 1.17270485e-003
      4.02404607e-004 -1.09121657e-003 6.66244538e-004 -1.32688927e-002
      0. -8.56976584e-003 -1.01206535e-002 1.05848620e-002
      -6.80137333e-003 3.39446776e-003 6.90038130e-003 -1.08690439e-002
      0. -4.79967706e-003 -2.48309021e-004 -5.71578741e-004
      4.82492149e-003 4.42966702e-004 6.66053558e-004 -5.03581483e-003
      0. -3.16158799e-003 -6.44474244e-003 -7.08090374e-003
      6.20882493e-003 -7.44061952e-004 4.02291212e-003 -5.45434421e-003
      0. -1.39957236e-003 -6.43127831e-003 -7.35769188e-003
      -7.59893656e-003 -1.40506318e-002 4.32178658e-003 -1.18135056e-002
      0. 7.60004506e-004 -5.76722296e-003 7.27333827e-003
      -6.90536434e-003 2.98622856e-003 -3.33559001e-003 -1.71857385e-003
      0. -5.07890899e-003 3.64541542e-004 9.66134467e-005
      -1.14824604e-002 -6.24048043e-005 5.50393527e-003 -7.36515317e-003
      0. 2.72027194e-003 1.93929614e-003 4.31740424e-003
      -4.40889475e-004 5.70043828e-003 -4.02870442e-004 2.61006318e-003
      0. 1.83111359e-003 -1.88453763e-003 1.68263144e-003
      -8.05319659e-003 -4.86979121e-003 4.59575909e-004 3.11277830e-003
      0. -4.19170968e-003 -5.53171290e-003 -3.01872543e-003
      1.75655738e-003 4.09242697e-003 5.53274201e-003 9.02921136e-004 0.
      -6.50709728e-003 2.86599575e-003 -8.13434366e-003 -3.51599324e-003
      1.81692280e-003 1.87355699e-003 -1.65090326e-003 0.
      2.15021358e-003 -5.50161116e-003 -7.05580600e-003 5.97152486e-003
      -7.64725381e-004 4.40579513e-003 -5.94989071e-003 0.
      6.99087803e-004 5.36597858e-004 1.66478788e-003 3.53026111e-003
      1.58500352e-005 -5.50392037e-003 -8.59489373e-004 0.
      -3.58145148e-003 -7.16028921e-003 -1.09560217e-003
      -3.29574663e-003 2.70459685e-003 1.47691602e-003 -1.26912752e-002
      0. -5.07757161e-003 5.74502908e-003 -9.39124171e-003
      1.52214933e-002 -1.01064481e-002 -3.39686405e-003 -6.16933685e-003
      0. -7.45485630e-003 3.67798004e-003 -1.12697482e-002
      -1.61388784e-003 2.55902042e-003 -7.24755321e-003 5.01554273e-003
      0. 6.59836084e-003 6.95710676e-003 2.54555233e-003
      -6.54197345e-003 1.38036686e-003 4.21075849e-003 1.43352384e-003
      0. 3.67722823e-003 -2.13106140e-003 1.04717817e-002
      -1.02819325e-002 -6.81244116e-003 -7.58691784e-003 2.74973293e-003
      0. 4.84468794e-004 -2.47508264e-003 -3.25024640e-003
      -4.23062779e-003 5.42656193e-003 -3.36699421e-003 4.34070453e-003
      0. 7.15147471e-003 -3.64242168e-003 2.34512170e-003
      9.80097335e-004 4.38405015e-003 -3.01602785e-003 1.02999751e-002
      0. 2.38445844e-003 -1.67653197e-004 1.60358520e-003
      9.31704789e-003 -1.73575804e-003 1.76022656e-003 -7.81547371e-003
      0. 2.29729107e-003 6.92173047e-003 -9.59718879e-003
      4.81576985e-003 -1.14391441e-003 2.59885262e-003 1.64205336e-003
      0. -5.16021764e-003 1.97622832e-003 -5.13062673e-003
      -6.50244951e-003 -3.32888472e-003 -1.90830510e-003
      -3.94452363e-003 0. -9.32173803e-003 -6.70708669e-003
      6.14807848e-003 -4.75900993e-003 5.84534486e-004 -6.01775758e-003
      3.23660648e-003 0. -1.78351626e-002 4.11952566e-003
      -2.95407441e-003 -7.21792411e-003 -1.32549973e-003
      -8.33352376e-003 5.60137117e-003 0. 2.18391092e-003
      5.75927319e-003 3.18161165e-003 -5.05014136e-003 -5.54639939e-003
      9.09066526e-004 -3.06392845e-004 0. 4.92860097e-003
      4.40130988e-003 2.84295669e-003 -8.31459090e-003 -1.03678834e-002
      -2.21717288e-003 1.23761268e-002 0. 4.73042205e-003
      2.52993545e-003 4.83572809e-003 -5.41682821e-003 1.19695067e-002
      9.49060265e-003 -1.68372481e-003 0. 8.39778036e-003
      -3.57608357e-003 -1.33452034e-002 1.80501200e-003 1.14863394e-002
      -1.46070169e-003 3.46280425e-003 0. -1.14615364e-002
      -9.03804507e-003 2.76801130e-003 -2.68306537e-003 -5.64129790e-003
      -4.22052573e-003 9.48483124e-003 0. -1.99745031e-004
      6.60685403e-003 6.36441726e-003 4.27477248e-003 -5.52489934e-003
      3.98299238e-003 -1.89162442e-003 0. 2.32357037e-004
      3.04078613e-003 9.68916982e-004 9.24117770e-003 -1.32745365e-002
      -5.10075688e-003 -2.37928331e-003 0. 4.13042074e-003
      3.11559625e-003 -6.97272224e-003 -3.28837917e-003 7.16854446e-003
      -2.65697786e-003 -3.45869921e-003 0. 7.69993523e-004
      5.62743191e-003 -6.73569413e-003 -1.26439370e-002 1.06274225e-002
      2.48233485e-003 -7.47301942e-003 0. 4.30300739e-003
      5.73979830e-003 -6.72721071e-003 -8.34558811e-003 2.89990264e-003
      -6.29951304e-004 -8.21368129e-004 0. 6.14587311e-003
      7.54299015e-003 -6.87600533e-003 -3.87234520e-003 -1.58807531e-003
      -8.70643929e-003 -3.24130361e-003 0. 6.78978721e-003
      1.11696357e-002 -9.10036732e-003 -5.57938311e-003 6.36331213e-004
      -3.29494220e-003 -1.46503844e-005 0. -6.71383739e-003
      2.93547218e-003 -3.46031110e-003 -6.63953542e-004 -3.52161325e-004
      -2.44969875e-003 -4.59697656e-003 0. 3.97164095e-003
      1.06946314e-002 -4.23394609e-003 -2.00094865e-003 -3.85965663e-003
      -5.33088157e-003 -4.57749655e-003 0. 5.59366308e-003
      -1.56263250e-003 -5.18482598e-003 -4.44096606e-003 3.34136363e-004
      -7.30464992e-004 1.96173671e-003 0. 7.43897492e-003
      7.70896440e-003 2.97805155e-003 -1.24630542e-003 2.38359976e-003
      8.70220922e-003 1.54828740e-004 0. -4.37425263e-003
      -8.62631423e-004 2.19809543e-003 3.72316083e-003 -6.55516749e-004
      3.11202114e-003 -3.35265952e-003 0. 1.11667998e-002
      -5.51957218e-003 5.98910032e-004 -2.66616372e-003 -9.47497319e-003
      -8.33447836e-003 -1.10218646e-002 0. 4.56874026e-003
      -1.85023237e-003 8.33754544e-004 1.05665401e-002 -1.48116508e-002
      3.68552795e-003 -1.21187279e-003 0. -4.66655567e-003
      1.75419059e-002 9.78750642e-003 -2.37147720e-003 6.68923883e-003
      1.88208616e-003 3.77137354e-003 0. -1.38640497e-002
      -6.09655771e-003 2.00746628e-003 -1.86220910e-002 5.95331658e-003
      -6.67729694e-003 5.15981996e-003 0. -9.36777703e-003
      -6.83648651e-003 8.65972042e-003 -6.21530088e-003 9.86104365e-003
      7.10852584e-003 1.46767590e-003 0. -6.40022848e-003
      5.68588777e-003 2.79968651e-003 -1.27820764e-002 9.84042231e-003
      4.25113039e-003 -1.22184260e-002 0. 7.71417608e-003
      -8.97079054e-003 0. 0. 7.65253790e-003 -8.64027906e-003 0. 0.
      -9.34783649e-003 9.52897593e-003 0. 0. -1.83881517e-003
      2.16320064e-002 0. 0. -6.97101420e-003 -5.15817245e-003
      -6.28520444e-004 -1.88491016e-003 7.04719452e-003 6.53313985e-003
      -7.28342077e-003 0. -2.02408846e-004 1.84330437e-002
      -7.27173174e-003 -5.27667487e-003 -5.70901018e-003 1.36770133e-003
      9.83552169e-003 0. 1.12254079e-002 5.77992247e-003
      -4.11108509e-003 4.03652294e-003 1.12108076e-002 -2.12648651e-003
      2.16316222e-003 0. -9.15786810e-003 7.81289116e-003
      3.05066793e-003 7.83235021e-003 2.96366424e-003 -1.96810556e-003
      1.76698121e-003 0. 8.57899990e-003 -2.78503576e-004
      -8.71687103e-003 3.04163812e-004 1.03228912e-002 1.10120687e-003
      2.33579442e-004 0. 2.11980566e-003 -1.95896789e-003
      -3.74597567e-003 3.02882865e-003 8.18576105e-003 1.13661783e-002
      -2.52360664e-003 0. 3.71140661e-003 -3.93894780e-003
      1.79487735e-003 -3.89695796e-003 -4.29808302e-003 8.45462922e-003
      6.90294383e-003 0. 5.05787553e-004 1.32814124e-002 3.87269747e-003
      1.15941279e-003 -5.48501452e-003 -4.75134887e-003 -1.26189757e-002
      0. -2.34444439e-003 2.65337992e-004 -2.40096706e-003
      1.17039890e-003 -7.26227183e-003 6.92509202e-005 -1.95537251e-003
      0. 5.36944764e-003 -8.90063588e-003 5.46734547e-003
      3.00616329e-003 8.74405447e-003 1.03563983e-002 -1.45709179e-002
      0. -9.32233222e-003 -6.10371470e-004 6.90056803e-003
      9.89382854e-004 8.62840377e-003 5.31598506e-003 4.21948469e-004 0.
      -1.55319953e-002 5.28030051e-003 9.01576318e-003 6.03073789e-003
      1.48303928e-002 -2.17020791e-003 1.04936957e-003 0.
      -4.18380182e-003 3.22902575e-003 3.62693402e-003 1.00389738e-002
      -2.87695904e-003 -3.78590031e-003 2.45679962e-003 0.
      -2.63040094e-003 6.59355064e-005 -3.30380681e-005 1.49323307e-002
      -9.52110719e-003 3.55691672e-003 4.70525119e-003 0.
      -8.76282342e-003 2.11871555e-003 2.64640781e-003 1.27554499e-002
      -7.54060224e-003 -2.04796321e-004 1.50582995e-002 0.
      -1.95627427e-003 4.32544993e-003 1.03839766e-002 6.31211186e-003
      4.03388450e-003 -1.95271772e-004 6.64453255e-003 0.
      -3.57948756e-003 -7.48047046e-003 2.61397264e-003 2.96260626e-003
      -1.78315633e-004 5.82769886e-003 -4.84845415e-003 0.
      -4.52601322e-004 -7.91944284e-003 -7.39494790e-005 1.09203458e-002
      -7.37781229e-004 1.34544086e-003 4.75525204e-003 0.
      7.36264465e-003 -9.59856808e-003 3.16827744e-003 8.44051223e-003
      7.30175013e-003 -2.03887350e-003 5.85580524e-003 0.
      7.65668636e-004 -1.07082417e-002 -7.67430663e-003 8.05212371e-003
      1.23833050e-003 -1.45629141e-003 -2.72603659e-003 0.
      -1.21344998e-002 -1.49803460e-002 6.10785733e-004 6.72193151e-003
      6.55635772e-003 -6.07145624e-003 -6.25378406e-003 0.
      9.99702606e-003 -3.41769797e-003 9.59583744e-003 5.52003970e-003
      -9.46195703e-003 -5.32835489e-004 -1.08933346e-002 0.
      -1.21120643e-002 -2.77932175e-003 8.66980944e-003 1.32359508e-002
      -1.14301220e-002 4.50909324e-003 -5.66492416e-003 0.
      8.05280358e-003 -7.33133452e-003 5.72835980e-003 6.64773583e-003
      -1.82751246e-004 3.01701250e-003 7.15996511e-003 0.
      -8.83485554e-005 1.60783052e-003 -1.51105912e-003 7.56638171e-003
      3.58468038e-003 1.19197322e-002 -1.44424778e-003 0.
      -3.26130097e-003 -3.01881996e-003 -1.14864297e-003 4.13003704e-003
      -4.78877639e-003 3.79600166e-003 3.68405506e-003 0.
      -5.10432234e-004 1.31881526e-002 -9.53581277e-003 -1.34897698e-002
      5.59537846e-004 7.05460692e-003 1.93868391e-003 0. 1.30982129e-002
      -1.58897899e-002 -4.51157219e-004 -1.11691402e-002
      -6.29960839e-003 5.31351101e-003 -4.21093218e-003 0.
      -4.71095089e-003 1.07391365e-003 -4.06205561e-003 -1.61510392e-003
      1.83375552e-003 1.24078488e-003 -3.87624046e-003 0.
      -4.32601711e-003 -4.50179167e-003 3.54842143e-003 -1.74033083e-003
      8.42033979e-003 4.11622319e-003 1.19699887e-003 0. 3.06148548e-004
      1.12318853e-003 -1.69035117e-003 9.78829153e-003 3.10037285e-003
      1.22614382e-002 -4.69466066e-003 0. 4.80281975e-004
      -3.47713567e-003 -2.23073730e-004 -1.80349438e-004 4.83895931e-003
      3.77090229e-003 -3.35265649e-003 0. -2.24490766e-003
      -7.49625106e-005 6.39982347e-004 -5.56387799e-003 2.20917016e-002
      -3.41837364e-003 -9.56548750e-003 0. -7.01371860e-003
      2.96650804e-004 6.80113630e-003 1.25018798e-003 3.92273068e-003
      -1.45050988e-003 -4.14627930e-003 0. -5.43674640e-003
      -1.72720698e-003 -5.24887073e-005 -9.35740583e-003
      -4.95965919e-003 8.60076025e-003 1.11129079e-002 0.
      -1.42629235e-003 2.82371882e-003 2.39142124e-002 5.09004807e-003
      -2.00591283e-004 3.46163078e-003 1.77995712e-002 0.
      -5.89887472e-003 1.16203842e-003 9.26511642e-003 3.70361796e-003
      3.00267176e-003 6.46609580e-003 1.21408086e-002 0.
      -7.83811603e-003 1.21424766e-002 4.37611714e-003 3.59389605e-003
      -2.58127955e-004 -1.58392638e-003 -2.83228769e-003 0.
      -2.14921287e-003 -2.15157121e-003 1.30976585e-003 -4.60347021e-003
      1.55420965e-002 2.64630583e-003 -4.39104019e-003 0.
      -2.49954697e-004 -1.70161529e-003 -1.17903063e-002
      -4.68719564e-003 -6.94038463e-004 2.75975035e-004 -1.43664493e-003
      0. 9.79067013e-003 5.94036514e-003 -7.80546106e-003
      2.59821885e-003 3.08378693e-003 8.59228428e-003 -2.27363431e-003
      0. 6.16251165e-003 4.22955770e-003 -1.02764377e-002
      3.24882846e-003 1.67216044e-002 9.40521900e-003 4.59826319e-003 0.
      -1.98179833e-003 -3.15755140e-003 -5.75505011e-003
      -3.40595539e-003 1.50806261e-002 7.07725179e-004 -7.32718594e-003
      0. 3.26451310e-003 -2.43529631e-003 -7.95858447e-003
      -1.17872590e-002 5.12438500e-003 2.12632352e-003 1.51594413e-005
      0. 4.15131683e-003 -1.02609154e-002 -5.39345318e-004
      -9.95189184e-005 -4.33022110e-003 1.12946285e-002 1.58566062e-003
      0. -4.24482254e-003 -2.00245902e-003 -9.29238182e-003
      -3.97947710e-003 9.30220995e-004 -4.85184928e-003 -2.37112422e-003
      0. -3.89914424e-003 6.60743425e-003 3.18932673e-003
      -1.46016637e-002 -9.92214307e-003 9.42003075e-003 4.52935183e-003
      0. 9.91967972e-004 2.65609910e-004 7.18302745e-003
      -1.17949145e-002 -8.49745236e-003 3.65875522e-003 5.34405652e-003
      0. 3.57770798e-004 -1.79786817e-004 7.97079317e-003
      -1.76329701e-003 4.82812058e-003 4.95245727e-003 4.17306367e-003
      0. 1.70789950e-004 1.20917289e-003 -5.27284853e-003
      5.28782746e-003 -6.13348093e-004 -5.96631784e-003 -8.43658418e-005
      0. -1.25396322e-003 -2.47086585e-003 -5.97949745e-003
      -2.65522418e-003 -2.63146358e-003 5.19180496e-004 6.87386096e-003
      0. -6.72333920e-003 -9.22548305e-003 -6.23609754e-004
      -8.23441055e-003 3.76787902e-005 4.97533614e-003 3.36434972e-003
      0. -4.23228089e-003 -4.61677584e-004 -2.73230858e-003
      -7.19458796e-004 6.50591915e-003 2.93372851e-003 8.02708045e-003
      0. 1.40181172e-003 6.39667036e-003 -7.26382900e-003
      -8.65386892e-003 -5.40842814e-003 5.74141415e-003 2.28380971e-003
      0. 1.99262658e-003 -7.12502608e-003 -4.30209748e-003
      -8.68868548e-003 1.81249082e-002 7.03896070e-003 1.47741090e-003
      0. -7.43638072e-003 4.10550833e-003 2.82746577e-003
      -2.15001870e-003 -7.61712389e-003 -5.25687588e-003
      -6.08483516e-003 0. -9.18715913e-003 -4.70697461e-003
      5.68923261e-003 1.94271363e-003 -1.05664250e-003 3.03676073e-003
      6.63858559e-003 0. -2.44286563e-003 -4.91913967e-003
      7.28366757e-003 -5.16955834e-003 2.21495843e-003 -5.34587726e-003
      8.10731389e-003 0. 2.51198723e-003 1.45357382e-003
      -5.94768114e-003 -2.60376744e-003 8.49170797e-003 -3.86595260e-003
      5.68592595e-003 0. -1.15051353e-002 1.24706945e-003
      6.91430410e-003 -1.06630018e-002 -6.00066455e-003 -4.86527197e-003
      9.67756088e-004 0. -5.85592538e-003 -1.55733945e-003
      1.14731407e-002 -1.49907835e-003 4.31911228e-003 3.44286347e-003
      9.64850746e-003 0. 1.32802855e-002 1.42391387e-003 1.62044691e-003
      -7.34437723e-003 -6.54983334e-004 4.79324441e-003 4.56316397e-003
      0. 7.62458984e-003 4.96251043e-003 -2.79081799e-003
      -2.69688107e-003 1.25592062e-003 3.89232207e-003 -1.23526773e-003
      0. -1.13243386e-002 -8.22918490e-003 -8.56115669e-003
      -7.23284495e-004 -1.83717522e-003 1.20034174e-003 -4.56293486e-003
      0. 5.99754788e-003 -7.35094491e-003 -5.14376909e-003
      8.25400930e-004 8.61253298e-004 -6.20592991e-003 -9.30699147e-003
      0. 1.16550792e-002 4.79770964e-003 -9.20719095e-003
      -2.06802017e-003 4.02821926e-003 -5.18529955e-003 -1.67023391e-003
      0. 2.83620390e-003 4.29761782e-003 -1.57411434e-002
      1.41667703e-003 7.19204172e-003 -3.76462075e-003 1.70198362e-003
      0. 1.98820862e-003 -6.85858366e-004 -7.00742658e-003
      -2.15716567e-003 -3.43289645e-003 -9.59644211e-004
      -3.58003960e-003 0. 1.27687240e-002 -1.68910774e-004
      -4.17551398e-003 -4.09907335e-003 -7.79474434e-003
      -1.87020213e-003 2.02852488e-003 0. 1.32468771e-002
      4.29299398e-005 -9.26434062e-004 2.16504256e-003 -1.90191437e-002
      1.69980172e-002 -1.24260513e-002 0. -3.82053643e-003
      -1.16139697e-002 -1.10130366e-002 -1.18042037e-004 2.61120219e-003
      3.03641940e-003 -6.34287950e-003 0. -3.22475308e-003
      -6.32065069e-003 -7.65133696e-003 5.01116272e-003 -6.15987694e-004
      2.38129497e-003 1.35299074e-003 0. -1.79539865e-003
      4.23099892e-003 -7.35118054e-003 1.02465292e-002 8.57551955e-003
      6.81877509e-003 -2.40379875e-003 0. -5.56914648e-003
      -5.64054120e-004 -4.34262725e-003 -2.68796762e-003
      -1.73601266e-002 -3.91440932e-003 -1.54599454e-003 0.
      -1.04858847e-002 7.37656199e-004 -8.89905635e-003 6.99807517e-003
      6.65317476e-003 1.60550792e-003 6.45641563e-003 0.
      -1.62733370e-003 5.27484994e-003 -2.85258959e-003 4.15686099e-003
      3.78544122e-004 -4.61089704e-003 -5.91707835e-003 0.
      -7.78897433e-003 -2.34013190e-003 -7.25787226e-003 2.28351559e-002
      2.49654101e-003 -5.95007604e-003 -3.03153717e-003 0.
      -1.04720257e-002 8.34019668e-003 -2.63156393e-003 1.17026241e-002
      1.23974402e-002 2.88378610e-003 -1.20376889e-003 0.
      -3.35055566e-003 3.86177818e-003 0. 0. 1.09083802e-002
      2.05245032e-003 0. 0. 6.21022424e-003 4.18123975e-003 0. 0.
      -1.36242341e-002 -4.64344677e-003 0. 0. 1.91913755e-003
      1.02605009e-002 -5.27383341e-003 2.73204967e-003 1.13101779e-002
      1.92421919e-003 6.57033932e-004 0. 1.27940124e-003 9.07592196e-003
      -4.74391878e-003 -1.40974494e-002 5.28140040e-003 -6.37126388e-003
      1.76695001e-003 0. -4.31104982e-003 -5.97856008e-003
      -1.46396423e-003 -1.24922278e-003 2.32402724e-003 -4.10299143e-003
      3.12181679e-003 0. 4.87079890e-003 -5.19159855e-003
      -3.32267629e-003 1.17362700e-002 9.54770367e-004 8.64781439e-003
      1.14846407e-002 0. 8.78279470e-003 -6.62137580e-004
      -5.00597853e-005 2.55222374e-004 -2.60705536e-004 1.00018375e-003
      6.00666460e-003 0. 1.06217293e-002 -1.03056794e-002
      -1.99096948e-002 -3.04888061e-004 -3.44613148e-003 9.47345607e-003
      2.40373635e-003 0. -4.50190343e-003 -4.38939966e-003
      4.23712423e-003 -3.70723708e-003 1.01304008e-002 7.39079202e-004
      7.35916989e-003 0. -4.32933541e-003 1.52435396e-002
      -9.04462766e-003 3.35463294e-004 7.95431086e-004 -1.02410163e-003
      1.32845026e-002 0. 6.07207511e-003 -6.05854555e-004
      1.17589044e-003 6.67286664e-003 3.21327383e-003 1.04761035e-004
      9.10123624e-003 0. 3.78374134e-005 1.20852084e-003 5.78889949e-003
      3.85219534e-003 8.52474594e-004 6.75606728e-003 3.60823236e-004 0.
      -1.48040485e-002 -2.58358516e-004 1.14117805e-002 5.58802392e-003
      1.23124225e-002 -3.01472284e-003 -1.13220531e-002 0.
      -3.65929166e-003 -4.65046475e-003 4.63542901e-003 8.41707364e-003
      4.80444542e-005 2.20970196e-005 4.45487350e-003 0.
      -1.55941676e-003 -1.01832161e-002 4.98619536e-003 1.85927702e-003
      -7.41572119e-004 -1.25936382e-002 2.10149447e-003 0.
      1.03970449e-002 -4.25152341e-003 5.71334269e-003 -2.84763100e-003
      -1.50290849e-002 7.65501114e-004 1.00981751e-002 0.
      -3.59599618e-003 3.89689533e-003 9.89681925e-004 -3.23907845e-003
      -9.27806832e-003 -2.59703863e-003 8.60572327e-004 0.
      -6.90438738e-003 4.03199950e-003 3.08041857e-003 1.23500172e-002
      1.28298893e-003 -8.95213336e-004 3.28336912e-003 0.
      -4.22740728e-003 7.50373863e-003 5.27275167e-003 4.65547713e-003
      -6.44343207e-003 -9.81460419e-003 -2.33429391e-003 0.
      4.17951262e-003 5.37808053e-003 1.27560915e-002 1.06568756e-002
      -1.03282556e-003 -2.22424068e-003 8.95376038e-003 0.
      -5.13898348e-003 1.03370044e-002 -5.02275350e-003 1.22632617e-002
      1.25122897e-003 -7.23617291e-003 6.64002309e-003 0.
      2.08638282e-003 9.60339606e-003 -4.88935690e-003 -2.60474812e-003
      4.26932378e-003 -1.68879851e-004 2.42838939e-003 0.
      3.70242866e-003 4.01343871e-003 -3.08787334e-003 1.23830256e-003
      4.35924856e-003 1.12162400e-002 -4.88503976e-003 0.
      -1.59429153e-003 6.59950683e-003 6.81989733e-003 3.51829291e-003
      6.13221852e-003 1.77928321e-002 2.82877660e-003 0. 5.69979567e-003
      7.36398576e-003 -6.41501800e-004 3.35183786e-003 6.71029277e-003
      1.42348791e-002 -7.40010804e-003 0. 5.15401969e-003
      -1.72553922e-003 3.58892349e-003 3.35038843e-004 1.43950584e-003
      -9.20329883e-004 -1.50785153e-003 0. 2.15254258e-003
      5.92583150e-004 -3.82738002e-003 2.67469278e-003 4.12835134e-003
      -3.96084692e-003 -1.80465251e-003 0. 8.08163546e-003
      3.82642774e-003 1.28887000e-003 1.15035251e-002 4.75419103e-004
      -5.15620690e-003 -7.42487004e-003 0. -7.40333274e-003
      -3.46183893e-004 -6.77691074e-003 3.02901375e-003 -3.13993264e-003
      1.71790656e-003 1.61701266e-003 0. 1.13917107e-003
      -1.68749865e-003 -1.13618504e-002 -2.36081169e-003 5.75475022e-003
      6.37420546e-003 2.54492997e-003 0. 5.71623584e-003 1.44461473e-003
      1.45848375e-003 3.04062176e-003 -5.96716814e-003 1.02105588e-002
      -5.80091169e-003 0. -5.07701421e-003 4.25719237e-003
      8.34224571e-004 3.58317397e-003 -5.17828390e-003 6.08594529e-003
      -3.54265654e-003 0. 5.04760025e-003 -4.04592184e-003
      5.40554430e-003 2.94179399e-003 2.07340787e-003 7.17197591e-003
      1.20629277e-003 0. 3.11850477e-003 1.14231035e-002 7.35419197e-003
      -3.59823718e-003 -7.63688888e-003 2.43288123e-005 -1.35970740e-002
      0. 5.37101692e-003 -7.53067201e-003 1.38050327e-002
      7.39671569e-003 3.23248183e-004 -2.80184997e-003 -8.05742107e-003
      0. -3.51914484e-003 -8.73782113e-003 3.52978311e-003
      -1.15784537e-003 5.02845785e-003 -6.75610220e-003 -2.72681913e-003
      0. -1.94115157e-003 -7.18376308e-004 3.17528052e-003
      -6.30990649e-003 -2.55486200e-004 6.95980678e-004 5.62355714e-003
      0. -4.56800638e-003 7.79963844e-003 9.44551174e-003
      1.98232196e-003 3.23326001e-003 -4.29646624e-003 3.19018867e-003
      0. 1.97139545e-003 -5.52688492e-003 -2.01650010e-003
      -6.97996328e-003 2.85673304e-003 -4.80740657e-003 5.66412089e-003
      0. -5.30122721e-004 1.62119663e-003 -6.05414947e-003
      -4.81265271e-003 9.41013731e-003 -1.84225966e-003 3.35472496e-003
      0. -1.49847614e-003 -5.30599058e-003 -4.94073750e-003
      -1.10123325e-002 6.77806046e-003 -6.38942840e-003 -2.06438336e-003
      0. -6.42252853e-004 8.63329391e-004 3.27043608e-003
      8.33763368e-003 2.86460668e-003 -1.83780561e-004 -6.30548550e-003
      0. -6.59061735e-003 1.12039351e-003 -1.65208685e-003
      3.25983972e-003 3.84254311e-003 2.86189443e-003 2.03858269e-003 0.
      2.74891476e-003 -5.30665554e-003 -4.13116114e-003 -4.38283151e-003
      7.70249928e-004 -1.40616321e-003 -3.09185358e-004 0.
      2.29198858e-003 -1.57517949e-004 3.04630003e-003 1.05503597e-003
      -2.18236190e-003 -2.05368808e-004 -5.95268095e-003 0.
      4.32021159e-004 -7.74929812e-003 -3.08257714e-003 -2.31234147e-003
      -7.85976928e-003 -3.92461335e-003 -8.62732437e-003 0.
      6.76382054e-003 -7.50724273e-003 -6.48873392e-003 -5.60527528e-003
      -2.91753677e-003 1.12367538e-003 2.18884903e-003 0.
      6.28118636e-003 2.98715639e-003 5.28519601e-003 5.84083900e-004
      -3.49304377e-004 7.59958290e-003 1.12636806e-003 0.
      -1.56776363e-003 7.12346192e-003 1.30030923e-002 3.17030842e-003
      8.21846246e-004 1.29928929e-003 1.01662576e-002 0. 1.09631578e-002
      7.55908899e-003 -2.18392443e-003 7.75354356e-003 3.73249478e-003
      5.36856242e-003 9.97257326e-003 0. 6.45506149e-003 4.86437278e-003
      -1.23314839e-002 5.97024849e-003 -2.02383380e-003 -7.95902777e-003
      6.62659341e-003 0. -1.90327060e-003 -6.12704456e-003
      3.86752607e-003 1.17349997e-003 -8.23031552e-003 -7.01836729e-003
      1.12295495e-002 0. 2.53582769e-003 1.17731281e-003
      -2.96999956e-003 -2.13392219e-003 1.19931865e-002 -2.43152189e-003
      6.45683333e-003 0. 4.40023281e-003 -3.42571409e-003
      -8.24539270e-003 -1.68533600e-003 4.12529800e-003 7.58842146e-003
      4.12555784e-003 0. 1.67517841e-003 -6.18463615e-004
      5.05878730e-003 6.28357462e-004 -1.97363668e-003 1.25372480e-003
      -8.39407369e-003 0. -5.30640921e-003 1.02234129e-002
      4.28643730e-003 5.78799471e-003 -4.36928403e-003 -9.10030096e-004
      9.73474421e-003 0. -7.05965282e-003 5.22802630e-003
      -4.61772084e-003 2.35866476e-003 -6.08293898e-003 -2.29324074e-003
      3.57140834e-003 0. 5.95413661e-003 6.05457043e-003
      -5.90358977e-004 7.60458177e-003 -2.49111047e-003 6.56420272e-003
      -6.21208455e-003 0. -2.54684384e-003 5.14856679e-003
      5.74476272e-003 -3.24598659e-004 -5.40941721e-003 5.37013076e-003
      -1.20661892e-002 0. 2.82011344e-004 -2.62736436e-003
      1.06257992e-003 -1.72420859e-003 -4.46661795e-003 1.03774993e-003
      4.79828659e-003 0. 8.04044679e-003 -4.63825371e-003
      9.55905824e-004 4.63536056e-003 -1.67941465e-003 -4.92201652e-003
      3.78515036e-003 0. 4.72162990e-003 -3.95213021e-003
      -1.46558750e-002 8.17839801e-003 -6.62539620e-003 -5.25312684e-003
      1.79933512e-003 0. 5.39505418e-005 2.93818442e-003
      -7.58398604e-003 3.46676912e-004 9.09346063e-003 -5.14235161e-003
      1.03296107e-003 0. 1.38275810e-002 6.00526761e-003
      -7.90933985e-003 -7.70208566e-003 -8.58352892e-003 8.21550749e-003
      -4.41423198e-003 0. 6.54818211e-003 -4.81341267e-003
      -7.85470754e-003 -7.29453377e-003 9.38469660e-004 -3.75189283e-003
      -3.56623670e-003 0. -1.88175694e-003 3.13215167e-003
      -2.96453666e-003 -6.99116848e-003 6.96709799e-003 -3.90034891e-003
      4.12378786e-003 0. 4.59149759e-003 4.75294143e-003 3.35622509e-003
      6.57145260e-003 8.60720966e-003 -2.34366555e-004 -4.24224185e-003
      0. 4.75000404e-003 -3.46230669e-003 4.92396532e-003
      -2.30496214e-003 -2.99096527e-003 -3.65487672e-003 1.19949412e-003
      0. 8.46085045e-003 -2.58578896e-003 -4.88776201e-003
      1.83152012e-003 8.20956286e-003 4.42363042e-003 -3.04136402e-003
      0. 1.23544754e-002 6.21288689e-003 -4.57611913e-003
      3.88371386e-003 2.16361228e-003 5.32148173e-003 3.25115077e-004 0.
      1.39485141e-002 -8.11637583e-005 -5.04779257e-003 -9.87452548e-003
      -1.63382273e-002 -1.32050028e-003 1.20665003e-002 0.
      -4.68043331e-003 -3.79320141e-003 -4.05205181e-003
      -9.84958606e-004 -7.05405232e-003 6.55509997e-003 1.23891502e-003
      0. 7.65363825e-003 3.34957591e-003 -1.10173365e-002
      -9.50749032e-003 5.90010022e-004 -7.10863573e-003 -5.08200435e-004
      0. -5.06028440e-003 7.17221806e-003 8.94688163e-003
      -6.59209769e-003 1.34984544e-002 5.22874156e-003 -3.16059776e-003
      0. -1.17658023e-002 5.99804008e-003 -3.25853936e-003
      -8.22386704e-003 1.17115015e-002 1.48750516e-002 -1.69822667e-003
      0. -2.47638533e-003 -4.54110885e-003 5.19896904e-003
      1.67771621e-004 1.01426858e-002 3.93040432e-003 -5.94361778e-003
      0. 1.03606945e-002 -4.47945017e-003 1.37324780e-002
      2.03970913e-003 -5.63558331e-003 8.04032478e-003 -1.31203029e-002
      0. -1.03649190e-002 -8.64620879e-003 1.30941800e-003
      1.02436384e-002 1.31936790e-002 2.99955136e-003 4.03897092e-003 0.
      4.59671346e-003 1.52636867e-003 4.09412384e-003 -8.47347174e-003
      2.02677026e-003 -6.56672474e-003 -3.20668519e-003 0.
      2.38981075e-003 -2.25094170e-003 3.86288739e-003 4.41941991e-003
      -6.63679652e-003 -2.28488841e-003 1.38879130e-002 0.
      6.09968556e-003 6.24855468e-003 0. 0. 1.04078650e-003
      -6.42479630e-003 0. 0. 1.16061009e-002 -5.37776435e-003 0. 0.
      3.02164652e-003 3.57365841e-003 0. 0. 3.03017651e-003
      3.18161072e-003 -3.47661669e-003 -7.51004647e-003 7.33553572e-003
      -7.33967312e-003 -8.51364434e-003 0. -9.32923111e-004
      4.91900370e-003 3.58786550e-003 -1.13382759e-002 5.03508672e-005
      4.91128815e-003 1.00982469e-002 0. 6.10270025e-003 2.61736079e-003
      3.11799673e-003 5.65213384e-003 -8.69209506e-003 2.60212529e-003
      3.42402025e-003 0. 1.84276944e-003 -1.98905764e-004
      -1.30564105e-002 -3.06823989e-003 -5.48607716e-003
      -4.13755514e-003 8.08178855e-004 0. -6.23875251e-003
      1.13750920e-002 -8.13617557e-003 -4.01244033e-003 -5.78583265e-003
      -5.49254287e-003 -5.32894442e-003 0. -4.00240673e-003
      2.92905490e-003 6.73825154e-003 -3.27339722e-003 1.76351015e-002
      -2.64510652e-003 -1.51483214e-003 0. 3.24361548e-002
      6.42183609e-003 -5.53732878e-003 -7.44661270e-003 1.00910431e-002
      1.04881625e-003 -2.39376604e-004 0. -4.09631664e-003
      2.82571092e-003 4.71400050e-003 -6.25621714e-003 1.24869298e-003
      -1.03519429e-002 -3.13924509e-003 0. 4.04762710e-003
      7.92304426e-003 -3.54129565e-003 3.15032172e-004 1.12255475e-004
      4.28475672e-003 -3.57709546e-003 0. 5.28509775e-003
      -3.87081737e-003 1.43854041e-002 1.27593952e-003 6.86917978e-004
      7.93049228e-004 -1.92191696e-003 0. 1.86524005e-003
      3.67552810e-003 -1.07273099e-003 -2.26141838e-003 -2.40066694e-003
      1.06823938e-002 3.38824210e-003 0. 1.06443968e-002 6.22604694e-003
      -1.08903684e-002 -1.30209327e-002 -4.77986783e-003 1.21361120e-002
      9.38321522e-004 0. 1.13981878e-002 -3.66050517e-004
      -5.01556369e-003 -7.19321333e-003 2.50918698e-002 9.91408899e-003
      1.04277749e-002 0. 3.84382438e-003 -1.53146766e-003
      -6.88998494e-004 -4.25208453e-003 -9.82869184e-004 1.80378859e-003
      -4.09247680e-003 0. 8.72497633e-003 -2.33203988e-003
      1.52915495e-003 -7.85496738e-003 -5.27903903e-004 1.62097607e-002
      5.79417218e-003 0. -4.95502376e-004 1.33181298e-002
      -8.67943745e-004 -8.95097386e-003 6.25431957e-003 1.04301842e-002
      1.27844489e-003 0. 6.24355488e-003 2.39320332e-003 5.11431322e-003
      9.35021817e-005 1.17371362e-002 9.86466464e-003 1.06997835e-002 0.
      -6.34994125e-003 -2.72531388e-003 -6.64306199e-003
      -6.59775874e-003 1.36934931e-003 -1.84045010e-003 5.36562921e-003
      0. 2.60311435e-003 -4.85034520e-003 6.77888189e-003
      -6.55096024e-003 -1.46613119e-003 -6.87243696e-003
      -1.01170875e-003 0. -1.06396945e-002 7.39410112e-004
      7.49946479e-003 -9.46178939e-003 7.95693416e-003 -2.13379208e-002
      8.42305273e-003 0. 7.49445707e-003 5.36219170e-003 9.86052305e-003
      -4.70779603e-003 2.62986333e-003 -7.73237320e-003 -2.06524390e-003
      0. 4.94711008e-003 -7.05126999e-003 3.34972423e-003
      3.89801222e-003 1.40446099e-003 -1.04281539e-002 4.67631640e-003
      0. -7.43901962e-003 -5.12999773e-004 1.67419035e-002
      5.68035012e-003 2.13053990e-002 1.13901892e-003 8.92739277e-003 0.
      -6.91911438e-003 -5.12492936e-003 1.11206099e-002 1.31376763e-003
      3.72619601e-003 -3.52464896e-003 -5.83494129e-003 0.
      -4.44728648e-003 1.39926618e-003 4.57962509e-003 1.14794271e-002
      1.70794269e-003 -6.23913016e-003 8.49344302e-003 0.
      -1.14867301e-003 -1.57497823e-003 -9.96197853e-003 2.25400110e-003
      3.61197046e-003 -3.63726838e-004 1.25243962e-002 0.
      6.56193867e-003 1.94283042e-004 -3.48240952e-003 7.48684863e-003
      5.30938758e-003 -5.69798797e-003 1.97851956e-002 0.
      1.11521110e-002 8.04758165e-004 3.25047586e-004 -1.17630779e-003
      -5.57547854e-003 -6.74233167e-003 3.04452260e-003 0.
      1.13509856e-002 4.83856769e-003 9.49289370e-003 5.51525922e-003
      -4.07302380e-003 1.21765472e-002 8.90990067e-003 0.
      7.75880227e-003 2.01961561e-003 -2.39009736e-003 2.24574120e-003
      1.35934614e-002 6.14832109e-003 -1.94679585e-003 0.
      4.93913889e-003 -1.50612905e-003 -8.86872411e-003 3.53667559e-003
      6.51535159e-003 3.14162718e-003 -5.13171870e-003 0.
      -1.39193190e-002 8.03876016e-003 5.68011822e-003 8.81285779e-003
      2.28567654e-003 4.23775055e-003 -1.34645384e-002 0.
      -1.46446358e-002 -3.02767800e-003 2.12947675e-003 4.09018714e-004
      2.56609032e-003 2.44391384e-003 -7.09766196e-003 0.
      -4.73992201e-003 6.22882880e-003 3.17877578e-003 9.11626872e-003
      2.66486593e-003 -1.36938132e-003 -6.94007706e-003 0.
      4.62967018e-003 -8.86538625e-003 1.65157276e-003 2.73737533e-004
      -4.13849764e-003 2.46082712e-003 3.14002717e-003 0.
      1.06754135e-002 1.27751648e-003 -5.10538463e-003 6.71200512e-004
      4.29303246e-003 3.10191419e-004 -2.83858809e-003 0.
      7.70903286e-003 7.55340559e-003 -1.17287980e-002 -3.61735583e-003
      1.55008107e-003 -2.77274288e-004 2.87661725e-003 0.
      7.66557688e-003 9.07625630e-003 5.73738012e-003 -1.23453094e-003
      6.67404290e-003 1.76576234e-003 1.63922587e-003 0. 5.13096713e-003
      6.94557466e-003 5.49828773e-003 -2.05584103e-003 -8.54481291e-003
      4.70025605e-003 -2.18273327e-003 0. -1.29122374e-004
      3.40584852e-003 -1.01842517e-002 -7.94843596e-004 -2.10935483e-003
      2.52995244e-003 -7.38217204e-004 0. 1.27775278e-002
      -7.21833250e-003 -4.43990994e-003 9.70663852e-004 1.38406770e-003
      1.53058404e-002 9.63199604e-003 0. 4.71925923e-005
      -1.35502219e-003 -3.63835669e-003 7.82127213e-003 -8.54512863e-003
      1.51666638e-003 3.65789095e-003 0. -9.89713240e-004
      8.05044919e-003 -1.03788369e-003 -6.76409295e-003 -1.80163316e-003
      -4.32391372e-003 -3.67448432e-003 0. 1.41107813e-002
      3.98251740e-003 1.48577645e-004 -9.77408607e-003 7.16246618e-003
      2.71020248e-003 4.95849317e-003 0. 4.39456338e-003
      -2.03369954e-003 -8.28099530e-003 -7.20105972e-003
      -8.91420059e-003 -1.35453837e-003 -8.64765886e-003 0.
      -2.49030127e-004 1.06677669e-003 -1.05052413e-002 6.79081026e-003
      3.12625431e-003 9.64854006e-003 -9.32439789e-003 0.
      8.04724544e-003 7.44350627e-003 -1.08854594e-002 7.21413083e-003
      1.55868856e-002 1.76445358e-002 -3.76502285e-003 0.
      1.98953087e-003 1.01811462e-003 5.07815741e-003 3.99937760e-003
      5.39622409e-003 9.50379763e-003 8.09612870e-003 0. 3.31027131e-003
      1.16483460e-003 8.12264625e-003 -2.68900068e-003 9.32029076e-003
      -1.56005356e-003 7.10433582e-003 0. 3.88222374e-003
      5.66690695e-003 5.17550996e-003 -8.21043365e-003 3.01460829e-003
      2.37552449e-003 6.98846113e-003 0. 1.32683618e-002
      -2.65943410e-004 -1.34617905e-003 -3.44126741e-003 5.97428018e-003
      5.32427011e-003 -1.81164499e-003 0. 1.51594793e-002
      -4.43320675e-003 2.39072647e-003 -4.41223942e-003 1.25236493e-002
      8.97093304e-003 -2.50834419e-004 0. -1.67435920e-003
      -6.83126878e-003 -9.33850766e-004 -3.14933364e-003 1.61395986e-002
      6.41187700e-003 3.26803373e-003 0. 1.10239135e-002
      -3.06111667e-003 -2.43788701e-003 -6.67608855e-003 1.12251360e-002
      2.58628093e-003 -6.04347652e-003 0. -1.19800232e-002
      4.23944043e-003 -8.42275098e-003 -4.19824570e-003 8.52160901e-003
      -3.10319266e-003 -1.09731229e-002 0. -1.28808385e-003
      -2.64329743e-003 -5.19754831e-003 -3.39845382e-003
      -3.29118944e-003 -1.09048677e-003 5.88791911e-003 0.
      -3.86753283e-003 -3.96775594e-003 -8.07856733e-004
      -4.83456301e-003 -5.84014365e-003 -3.24758212e-003 4.09628637e-003
      0. 6.72839116e-003 -5.29413461e-004 -2.81276554e-003
      -8.89437913e-004 1.60834298e-003 -3.31014802e-004 9.20059439e-003
      0. -1.26779871e-002 -7.44219543e-003 -4.92931623e-003
      1.82562601e-002 6.38208725e-003 3.08934809e-003 3.82005377e-003 0.
      -5.54546900e-003 1.50305638e-003 6.15158351e-005 2.64522707e-004
      -1.64586538e-003 -7.45132333e-004 6.80682156e-003 0.
      -2.99137086e-003 -6.46525295e-003 9.92044900e-003 -7.75184203e-003
      -6.09966228e-004 3.74041992e-004 -4.05868562e-003 0.
      -7.79211288e-004 -1.56935805e-003 3.32018011e-003 -5.89574687e-003
      2.45185103e-003 -1.82265975e-003 2.63950042e-003 0.
      1.30749084e-002 -1.01656571e-003 2.72010034e-003 8.09930079e-003
      7.36535015e-003 1.40752806e-003 2.17674504e-004 0.
      -4.97727329e-003 -9.86669766e-005 1.04458556e-002 1.57125071e-002
      2.61434028e-003 2.22702906e-003 3.48191243e-003 0. 1.19830845e-002
      -3.21145239e-003 3.05409613e-003 -2.23843753e-003 2.96217180e-003
      8.42515007e-003 1.30639393e-002 0. 1.67311705e-003
      -4.41887975e-003 -1.03359157e-003 -3.86740686e-003
      -3.05325771e-003 1.62342917e-002 1.47991600e-002 0.
      -1.11659791e-003 -4.83018579e-003 1.11221094e-002 3.42490640e-003
      1.13212457e-002 2.04405910e-003 -5.18810097e-003 0.
      -1.97060383e-003 -4.24792990e-003 8.15887190e-003 -9.57893953e-003
      -1.73289343e-004 4.95758513e-003 -3.17996764e-003 0.
      -4.20404132e-003 -7.50120636e-003 -2.16781744e-003
      -8.62568850e-004 -9.09271464e-003 3.17883980e-003 8.34836997e-003
      0. -2.81469035e-003 -5.82278147e-003 9.37261735e-004
      2.97162798e-003 4.50959895e-003 -7.59560964e-004 -7.94059690e-003
      0. -1.01790307e-002 -5.99005399e-003 -3.01938993e-003
      8.95450450e-003 8.86966940e-003 -2.50454387e-003 -1.79889856e-003
      0. -1.40227880e-002 3.92210111e-003 4.36900416e-003
      7.38268485e-003 2.05122009e-002 2.91986228e-003 1.10626267e-002 0.
      -4.66289883e-003 7.32411863e-004 -6.44528680e-003 -1.86258098e-004
      -1.84301361e-002 5.35693998e-003 -7.98786804e-003 0.
      1.19571632e-003 1.18222069e-002 -3.20863648e-004 7.96993822e-003
      4.22673626e-003 -1.62673229e-003 3.76307056e-003 0.
      -3.77553841e-003 -1.84589326e-002 4.72532492e-003 6.10265601e-003
      4.19204065e-004 9.49714798e-003 8.74931517e-004 0. 7.19617354e-003
      2.22031120e-003 -1.55420695e-003 2.43621180e-003 1.03980899e-002
      -2.62503931e-003 -4.01723385e-003 0. -9.28919110e-003
      -6.26198249e-003 -3.36440071e-003 -2.05070293e-003 4.86702519e-003
      7.05548842e-003 -4.64746309e-003 0. 8.30386207e-003
      4.18240111e-003 1.61919426e-002 -2.86454131e-004 2.90557218e-004
      -8.22061615e-004 5.53441234e-003 0. 1.07602254e-002
      1.39222862e-002 0. 0. 6.78740907e-003 5.89847565e-003 0. 0.
      -5.96367347e-004 -1.71558186e-003 0. 0. 3.25697009e-003
      2.22058788e-005 0. 0. 1.27678306e-003 6.47841394e-003
      1.85529829e-003 1.03465896e-002 4.05755639e-003 8.87867936e-004
      4.38718265e-003 0. -1.04426751e-002 1.66317087e-003
      -6.64728880e-003 2.17638118e-003 3.06432112e-003 -7.56948953e-003
      -4.97876387e-003 0. 1.22433584e-002 -3.36079323e-003
      -6.74504787e-003 8.34468659e-003 1.03302463e-003 1.23887765e-003
      -1.29224667e-002 0. 1.73373311e-003 9.65002272e-003
      -2.72494671e-003 2.98088999e-003 3.49914073e-003 8.72366130e-003
      1.51524357e-002 0. 2.18517194e-003 5.06649865e-003 8.42948037e-004
      8.39035551e-004 9.19744372e-003 1.38361799e-003 6.74729410e-004 0.
      -7.02821370e-003 -8.67241807e-003 1.91853510e-003 -3.13899666e-003
      -6.11321675e-003 -5.96207799e-003 -5.89812407e-003 0.
      -1.04262503e-002 -1.39388186e-003 6.56364020e-003 -7.81020429e-003
      1.25476252e-002 -8.37597437e-003 -9.12006386e-003 0.
      3.77838174e-003 -7.85545167e-003 3.46222590e-003 -5.22708613e-003
      -9.84104257e-003 2.35988945e-003 -3.91502911e-003 0.
      -7.26975213e-006 4.51539736e-003 3.66694527e-003 7.58345518e-003
      -1.18415738e-002 7.10495841e-003 -7.06728222e-003 0.
      -1.82722230e-003 5.20371739e-003 -9.96392337e-004 3.68220801e-003
      -4.57242085e-003 -5.29400865e-003 6.43098494e-003 0.
      -1.02847135e-002 4.88364045e-003 -2.24569393e-003 -5.47168497e-003
      -6.16184389e-003 4.23729746e-003 3.08345188e-003 0.
      -2.24836892e-003 -1.64803269e-003 -8.60335771e-003
      -4.88065556e-003 4.92088636e-003 -5.19330800e-003 1.13937445e-002
      0. 3.09564522e-003 6.56897377e-004 -6.60661049e-003
      1.51992554e-003 -1.07836900e-002 -4.43507248e-004 -1.02655692e-002
      0. 5.04909724e-004 5.74658206e-003 -1.14305997e-002
      1.15652401e-002 2.09090812e-003 8.48613027e-003 1.66048687e-002 0.
      -2.21730233e-003 8.99991952e-003 -8.27978272e-003 2.09826481e-004
      2.78312853e-003 1.90856669e-003 2.30455585e-003 0. 2.14675697e-003
      -1.05235656e-003 -1.98567822e-003 -8.16715509e-003
      -2.92583765e-003 5.78492694e-003 -5.49093878e-004 0.
      -1.11463130e-003 -2.72098696e-003 5.53261302e-003 4.43439744e-003
      -4.13744804e-003 -5.65914297e-003 5.13789104e-003 0.
      4.80238907e-003 3.85249709e-003 -2.63891346e-003 1.99312065e-002
      5.08183148e-003 3.00179049e-003 -3.45814927e-003 0.
      6.06732152e-004 3.42026673e-004 -2.44857767e-003 1.35844601e-002
      7.31853419e-004 5.48745785e-003 2.11589923e-003 0. 1.16088509e-003
      -6.58345036e-003 9.59521494e-005 2.12076865e-003 8.01448897e-003
      5.64080803e-003 3.78429214e-003 0. 7.83053041e-003 4.41944739e-003
      -1.69910379e-002 5.50088380e-003 4.48434707e-003 9.32467519e-004
      -1.81389768e-002 0. -1.70405756e-003 1.74519664e-003
      9.08436719e-003 -1.43721700e-003 5.75450808e-003 -5.52677363e-003
      1.45754975e-003 0. 7.62542128e-004 1.48592228e-002 3.40385898e-003
      1.14717323e-003 1.06588285e-002 4.66935430e-003 -5.12507372e-003
      0. 1.52437121e-003 1.07133454e-002 2.61168601e-003 4.31203080e-004
      8.02308379e-004 -5.77934366e-003 -6.05732389e-003 0.
      1.98879658e-004 1.70074892e-003 6.86895195e-003 -9.32099065e-005
      6.27629599e-003 6.38446352e-003 4.38634539e-003 0. 4.00968781e-003
      2.70695589e-003 -1.02064898e-002 -3.78354290e-003 1.01256568e-003
      -1.63057225e-003 7.77049689e-003 0. 1.09778810e-003
      3.89305875e-003 5.77923562e-003 -6.40751515e-003 -1.37021644e-002
      9.13932826e-003 -3.25566414e-003 0. 5.74443163e-003
      -3.07124667e-003 1.16613861e-002 2.14091386e-003 -1.05131464e-003
      1.04314648e-002 -9.15801618e-003 0. 1.16883516e-002
      -1.02990377e-003 -5.37525257e-003 -2.59683910e-003 4.11092537e-003
      8.91965814e-003 -1.26649858e-002 0. 1.23212812e-002
      -7.41724158e-003 4.07076767e-003 -4.08036727e-003 7.60135660e-003
      9.90860257e-003 -6.01624558e-003 0. 3.41453869e-003
      -1.66003895e-003 8.38549715e-003 1.56995549e-003 1.03484020e-002
      1.25629851e-003 6.78451080e-003 0. 1.31527043e-003 2.27604946e-003
      7.23410025e-003 2.24141963e-003 2.52230675e-003 8.23496375e-003
      1.73784350e-003 0. -6.85080979e-003 7.67883938e-003
      -8.70479830e-003 5.08709298e-003 9.16774967e-004 3.32200364e-003
      -6.15916867e-003 0. -4.71856911e-003 5.08493790e-003
      1.55618535e-002 4.25238116e-003 -3.83156002e-003 5.82214631e-003
      1.18005555e-003 0. -5.81243262e-003 4.70060715e-003
      4.83613042e-003 9.50526446e-003 1.63529012e-002 3.70941270e-004
      -7.24733155e-003 0. -7.44925253e-003 1.25753786e-003
      -2.91449227e-003 5.71200531e-003 2.95710959e-003 3.62597057e-003
      1.60608615e-003 0. -5.94552467e-003 4.23088903e-003
      4.94496664e-004 3.04791681e-003 -2.12992216e-003 5.14855189e-003
      -9.94814109e-005 0. 6.90710125e-003 2.70145200e-003
      4.43541445e-003 -2.21255631e-003 -3.01946246e-004 2.01948197e-003
      -1.77728047e-003 0. -1.89080456e-004 1.56638736e-003
      2.62960489e-003 -8.28559697e-003 2.32070358e-003 2.71266955e-003
      -4.51230723e-003 0. 7.61160161e-004 1.07795186e-002
      -4.66608629e-003 -6.00798428e-003 -7.23989331e-004 1.70964201e-003
      -3.37586156e-004 0. 9.49118752e-004 4.81187552e-003
      -5.04506612e-003 -1.01797227e-002 6.38640660e-004 4.87777579e-004
      5.27679222e-004 0. 7.96883833e-003 -8.39871541e-003
      -6.89857546e-003 -5.29406453e-003 3.46665829e-003 2.49592215e-003
      -7.15256343e-003 0. -1.61222217e-003 -3.00188595e-003
      -3.12052754e-004 -1.19275730e-002 -4.78025433e-003 4.77529923e-003
      -8.78139958e-003 0. -7.32894894e-003 -9.10442695e-003
      1.36279175e-003 -9.48225148e-003 3.51179224e-005 2.26485077e-003
      -9.32683237e-003 0. 1.14009585e-002 -9.57144541e-004
      7.26079335e-003 -2.63877516e-003 2.19406607e-003 6.14256738e-003
      9.61700338e-004 0. 2.13656342e-003 3.94793460e-003 8.46726820e-003
      -1.57310060e-004 2.29841471e-003 -4.51005413e-004 9.86207649e-003
      0. 8.38557445e-003 8.69708788e-003 1.59422890e-003
      -6.61275303e-003 -2.82076094e-003 3.37805715e-003 -1.86359626e-003
      0. 8.14137887e-003 7.58264307e-003 -4.77439287e-004
      -2.52363458e-003 -4.61776322e-003 -1.11098506e-003
      -2.59922352e-003 0. 1.10212853e-002 4.99607809e-003
      1.67084998e-003 -2.59482278e-003 3.66241758e-004 5.11311751e-004
      -3.41312704e-003 0. 1.44028217e-002 7.97354034e-004
      2.72044144e-003 2.78299395e-003 4.79910383e-003 3.64798866e-003
      5.76885650e-003 0. -2.70341290e-003 -3.98380589e-003
      2.62206327e-003 6.15953002e-004 9.20281000e-003 -3.05776484e-004
      -2.14344938e-004 0. 6.92974171e-003 -9.87224863e-004
      1.57707999e-003 5.22032380e-003 8.40810034e-003 4.23835451e-003
      -2.48852954e-003 0. 3.49524547e-003 -7.96699722e-004
      7.71531556e-003 1.33324787e-003 3.92154651e-003 -5.14517073e-004
      -5.54491486e-003 0. 9.65063181e-003 -5.32516092e-003
      -1.54526916e-003 3.37638077e-003 -1.24335103e-002 -2.28189718e-004
      -3.16998782e-003 0. -2.00389070e-003 -1.45501213e-003
      2.81045400e-003 4.12396481e-003 6.42838981e-003 -5.80673758e-003
      3.65109043e-003 0. -1.35515106e-003 3.88125540e-003
      -1.78165769e-003 -1.06009764e-004 2.32474995e-004 -2.75597977e-003
      -7.33547146e-003 0. -5.97841479e-003 -3.24516743e-003
      -3.12589016e-003 8.24524276e-003 -1.27387838e-003 3.27987573e-003
      -6.90109795e-003 0. 7.05643324e-003 -3.98262730e-003
      -3.68823041e-003 1.72686987e-002 8.49760510e-003 4.66110418e-003
      1.52187378e-004 0. 6.72776764e-003 -3.40491626e-003
      1.45188987e-003 7.40833255e-003 2.40385695e-003 9.19193681e-003
      5.09629434e-004 0. -3.75397643e-003 5.68753108e-003
      3.97122744e-003 5.14603918e-003 -6.28941227e-003 6.21578982e-003
      1.56197045e-003 0. 7.56582012e-003 5.08684199e-003
      -6.03914168e-003 -3.91393993e-003 -2.16399739e-003 6.17980817e-003
      1.01155890e-002 0. 7.02319387e-003 7.46005680e-004
      -1.48911832e-003 2.56751128e-003 3.22423503e-003 1.01399571e-002
      5.27458359e-003 0. -1.16603693e-003 5.18148346e-003
      4.53231903e-003 8.39875266e-003 2.78127426e-003 4.39616665e-003
      4.58394643e-003 0. 2.99130962e-003 -4.10176441e-003
      9.71840788e-003 1.65070512e-003 6.97391992e-003 1.13679338e-002
      -7.59876426e-003 0. 1.40414862e-002 1.57198031e-002
      -4.93512256e-004 -2.10788939e-003 1.71056651e-002 9.61971935e-003
      -2.69835000e-003 0. 6.35857054e-004 3.48523655e-003
      3.26536386e-003 -2.85544107e-003 1.81542011e-003 1.32225966e-002
      -5.24824252e-004 0. -7.60365836e-003 6.31686766e-004
      5.82002290e-003 -9.03743692e-003 -2.79943319e-003 1.15542086e-002
      -1.06116675e-003 0. -1.04666715e-002 -9.89155751e-003
      6.29986404e-004 -5.52966818e-003 3.22137494e-003 5.35296043e-003
      4.38866066e-003 0. 6.46204641e-003 -1.12433117e-002
      -1.17206657e-002 -2.38676323e-003 -8.84955633e-004 6.15989557e-003
      -3.42015596e-003 0. 2.25092820e-003 -1.87942164e-003
      4.05879831e-003 -2.26925616e-003 1.00159654e-002 1.74184591e-002
      3.78578040e-003 0. -6.26615202e-003 -1.70284428e-003
      5.07122139e-004 -9.56609566e-003 5.93357673e-003 4.14868398e-003
      -6.04182947e-003 0. -2.97058490e-003 8.27477034e-003
      2.12994963e-003 -1.44202495e-003 -2.75150361e-003 -7.66002340e-003
      2.66318675e-004 0. -8.48801620e-003 5.47330035e-003
      -3.66496947e-003 -9.14723333e-003 6.89724367e-003 8.45496356e-003
      2.07333709e-003 0. -3.03246477e-003 7.46526639e-005
      2.82310997e-003 -4.59722895e-003 6.07449701e-003 8.83925706e-003
      -6.26427634e-003 0. -5.50427148e-003 -1.59976631e-002
      4.95674787e-004 3.82952369e-003 -8.51091696e-004 -4.35528066e-003
      1.21203447e-002 0. -1.21593359e-003 -5.35109593e-003
      3.47483344e-003 -6.07443880e-003 -1.50620230e-002 -4.86221979e-004
      1.06150238e-002 0. -4.77816630e-003 6.16894150e-003
      -5.40505210e-003 6.16041105e-003 4.37509082e-003 1.07560633e-002
      -2.35461420e-003 0. 7.43314624e-004 2.02138931e-003
      -9.73450951e-003 9.81213874e-004 1.89423165e-003 -2.93138251e-003
      5.42739592e-003 0. 6.44748425e-003 9.11225006e-003 0. 0.
      7.56871840e-003 8.28897394e-003 0. 0.</_></support_vectors>
  <decision_functions>
    <_>
      <sv_count>1</sv_count>
      <rho>4.5412051265066502e+000</rho>
      <alpha>
        1.</alpha>
      <index>
        0</index></_></decision_functions></my_svm>
</opencv_storage>
