<?xml version="1.0"?>
<opencv_storage>
<my_svm type_id="opencv-ml-svm">
  <svm_type>C_SVC</svm_type>
  <kernel><type>LINEAR</type></kernel>
  <C>1.0000000000000001e-001</C>
  <term_criteria><epsilon>2.2204460492503131e-016</epsilon>
    <iterations>1000</iterations></term_criteria>
  <var_all>4096</var_all>
  <var_count>4096</var_count>
  <class_count>2</class_count>
  <class_labels type_id="opencv-matrix">
    <rows>1</rows>
    <cols>2</cols>
    <dt>i</dt>
    <data>
      0 1</data></class_labels>
  <sv_total>1</sv_total>
  <support_vectors>
    <_>
      6.97586639e-003 4.65543615e-003 2.77033978e-004 5.41870063e-003
      1.34783215e-003 1.08893518e-003 8.40252917e-003 -1.79847458e-003
      -5.25872828e-003 1.66397280e-004 1.05565717e-003 4.25689016e-003
      1.10945776e-002 1.91546930e-003 9.22275241e-003 0. 1.24125311e-003
      -2.47727265e-003 5.82240988e-003 8.66095629e-003 -6.31110882e-003
      -6.01057545e-004 3.37876356e-003 5.87583147e-003 -2.51382170e-003
      -5.62876638e-004 1.29421772e-002 6.55707996e-003 5.99413831e-003
      -1.58858625e-003 1.64697834e-004 0. 6.37772668e-004
      2.71678693e-003 9.93392617e-003 7.48208584e-003 -4.77938593e-004
      8.88301525e-003 -1.68670539e-003 1.14538111e-002 -1.22151989e-003
      5.41829225e-003 7.47364806e-003 6.25470048e-003 -2.42099282e-003
      1.33047462e-003 6.41868624e-004 0. -8.07609130e-003
      2.72785896e-003 3.30475182e-003 2.60954228e-004 -3.10251955e-004
      3.93781671e-003 4.06996201e-004 -1.98106142e-003 4.05546780e-005
      3.08377552e-003 1.73961185e-003 -2.79354351e-003 -2.00034468e-003
      2.45491671e-003 5.50998468e-003 0. -2.70096189e-003
      -5.53931342e-003 3.41278297e-004 3.08511488e-004 7.73944310e-004
      -2.36477260e-003 1.52148365e-003 9.86993196e-004 3.55002820e-003
      -6.00912608e-004 1.72623980e-003 5.75608481e-003 -2.27237144e-003
      -3.35047557e-003 2.54533673e-003 0. -3.37741547e-003
      -3.19875800e-003 5.67689491e-003 4.49243886e-003 -1.10649480e-003
      1.35503407e-003 9.16628912e-003 -1.73425383e-003 6.49368914e-004
      6.09732419e-003 6.74482761e-003 4.98900749e-003 -2.14705314e-003
      1.36130583e-003 1.58751721e-003 0. -2.34841369e-003
      3.30061978e-003 3.10735288e-003 3.26096499e-003 -5.78472856e-004
      2.27708323e-003 -2.40746234e-003 9.29195806e-003 -3.26192996e-004
      -4.02148726e-004 6.34062896e-003 1.23266177e-002 -4.00708290e-003
      5.88071952e-003 3.49150714e-003 0. 1.04341116e-002 7.58912321e-003
      2.77855899e-003 -2.04160274e-003 2.47115176e-003 -1.86306599e-003
      4.82269935e-003 2.48176954e-003 1.20294199e-003 -1.81521976e-003
      4.63314122e-003 6.76755374e-003 3.90025810e-003 -4.09159431e-004
      1.66688711e-004 0. 6.85821334e-003 4.90257423e-003 1.09622476e-003
      1.28078842e-004 1.73595187e-003 5.82465064e-003 3.59570445e-003
      -6.96104020e-003 4.07387130e-003 2.75955698e-003 -1.13190745e-003
      7.73724634e-003 2.02489877e-003 -2.09810375e-003 1.81193187e-004
      0. 3.05862143e-003 1.09183164e-002 -3.00782151e-003
      3.23412078e-003 8.19606427e-003 -3.67751141e-004 -4.50416841e-003
      -1.09827134e-003 4.13936470e-003 3.47108371e-003 5.26249455e-003
      2.52126390e-003 -4.64680046e-003 -2.16875970e-003 -1.61790906e-003
      0. 5.85121382e-003 3.84965353e-003 1.34845835e-003 5.53928968e-003
      1.53950450e-003 2.81773903e-003 -2.00636662e-003 -3.36201605e-003
      3.58060421e-003 -1.74901434e-004 -7.95868505e-003 -5.05882455e-003
      4.27912455e-003 2.34276592e-003 -2.01615971e-003 0.
      3.32793593e-003 8.35960079e-003 -1.51235447e-003 -8.34386237e-003
      1.22462329e-003 4.38814843e-003 -1.59056974e-003 7.46180711e-004
      -1.41794351e-003 2.19524070e-003 -3.40271369e-003 -1.53473555e-003
      2.83264020e-003 5.88032324e-003 -7.05181854e-004 0.
      -1.90558902e-003 -6.00785483e-003 -6.72881550e-004
      -2.55342619e-003 6.87092077e-003 7.72102131e-003 2.50835350e-004
      -2.44140322e-003 6.14624470e-003 5.41456928e-003 3.43063893e-003
      -2.23460700e-003 6.40290836e-003 7.45153101e-003 -3.45598650e-003
      0. 1.67800463e-003 2.36379867e-003 2.83816538e-004 4.54661669e-003
      8.75429064e-003 -2.55156832e-004 -4.30210814e-004 1.79060269e-003
      7.71957729e-003 9.65311658e-003 -2.26641889e-003 2.51130288e-004
      8.40765797e-003 8.21893755e-003 -1.13187300e-003 0.
      4.04474884e-003 3.74776166e-004 -2.43435404e-003 -5.36746299e-003
      6.15200540e-003 4.41788509e-003 9.03652108e-004 -2.32241605e-003
      -1.12823560e-003 1.35919116e-002 -6.93144323e-003 -2.18758266e-003
      5.70603088e-003 9.28777829e-003 -7.04137422e-003 0.
      -1.79340085e-003 9.10916179e-003 2.56664376e-003 -3.80336633e-003
      4.18655109e-003 1.68352469e-003 7.60741718e-003 3.41750449e-004
      2.64530838e-003 -1.90508587e-003 4.05216496e-003 -2.94344989e-003
      2.94080237e-003 1.10076461e-003 5.25775878e-003 0.
      -5.59718767e-003 -9.10326315e-004 -5.37501648e-004 2.22544791e-003
      -1.78594282e-003 1.36853289e-003 6.12363499e-003 1.07222504e-003
      4.25072247e-003 3.87849961e-003 1.18710694e-003 -3.30495392e-003
      -7.68876215e-003 7.83966912e-004 2.39485013e-003 0.
      3.91082140e-003 6.97261607e-003 1.59943737e-002 -7.85941910e-003
      4.06318018e-003 -6.04577479e-004 5.47201419e-003 -9.74568306e-004
      -2.55692587e-003 -2.41718930e-003 6.19723834e-003 3.93882394e-003
      -1.55076361e-003 -7.68320460e-004 -2.07539136e-003 0.
      1.33164208e-002 3.10704438e-003 1.31589985e-002 9.56046581e-003
      1.07761621e-002 5.10474318e-004 1.89010380e-003 -5.23518864e-003
      5.31423779e-004 6.88090862e-004 1.71276613e-003 6.26090635e-003
      2.94697960e-003 5.97379031e-003 -1.59440760e-003 0.
      7.33686320e-004 3.69361974e-003 1.30435601e-002 4.73823352e-003
      -2.19552987e-003 4.33296757e-003 3.74450977e-003 -5.35810413e-003
      1.29834632e-003 -1.28932123e-003 7.82383047e-003 2.23351782e-003
      7.09544588e-003 8.14983062e-003 -2.05923105e-003 0.
      4.12794203e-003 7.53844995e-003 -3.87647632e-003 2.97078653e-003
      3.40942084e-003 2.53873016e-003 -3.07194283e-003 4.49207518e-003
      -8.72166920e-003 1.23329682e-003 2.19716551e-003 5.65209135e-004
      6.09052181e-003 -1.79645154e-004 -1.74185028e-003 0.
      2.46750447e-003 5.98673429e-003 3.31562222e-003 -4.58798713e-005
      -2.74742604e-003 2.70733167e-003 6.34054793e-003 1.45547977e-003
      -1.91845419e-003 6.16370142e-003 1.46941524e-002 1.31700363e-003
      -5.96765755e-003 -4.03441442e-003 1.47478690e-003 0.
      -5.74587192e-003 -3.58967995e-003 -4.47669212e-004 2.54984433e-003
      -1.05782719e-002 -1.60897546e-003 -4.44273744e-003 3.40284809e-004
      -1.61829230e-003 3.50240315e-003 3.35674617e-003 5.97475236e-003
      2.88573396e-003 -2.31932313e-003 7.15660676e-003 0.
      -2.09287740e-004 2.71693571e-003 -3.56481387e-003 1.27612602e-003
      5.81569329e-004 -1.41623162e-003 9.91970114e-003 2.05888902e-003
      1.34632725e-003 3.25858081e-003 -2.72899587e-003 1.26315746e-003
      4.25080489e-003 -1.14200334e-003 1.23809453e-003 0.
      -4.36615665e-003 4.85221390e-003 -8.77217855e-004 4.42333147e-003
      5.48598031e-003 1.91092011e-004 -1.43037993e-003 -2.61146203e-003
      -2.49615638e-004 1.28517102e-003 -5.71691024e-004 -9.31192597e-004
      -4.38897318e-004 -6.32423488e-003 -3.70165473e-003 0.
      8.22873414e-003 6.70625502e-003 -7.11605593e-004 -3.49086220e-003
      4.25646640e-003 1.16928219e-004 1.40451384e-003 1.95948029e-004
      4.07089991e-003 6.54578675e-003 -6.79364894e-003 -3.29987705e-003
      -4.31852741e-003 9.49062500e-003 -8.22432060e-003 0.
      1.27921933e-002 1.13319594e-003 -1.94125378e-003 4.40493133e-003
      1.40349218e-003 -2.62946635e-003 -5.76515310e-003 -2.79124919e-003
      2.75200489e-003 -1.42754917e-003 -1.93064485e-003 5.72345685e-003
      -2.96789012e-003 4.40596417e-003 -2.03377311e-003 0.
      5.74735319e-003 1.20863027e-003 -8.51557415e-004 2.49239081e-003
      -4.41371044e-003 5.81493310e-004 3.73619446e-003 5.05642733e-003
      3.52570484e-003 6.27534930e-003 -6.08248170e-003 4.91744792e-003
      -6.41876925e-003 2.94053787e-003 -1.77431037e-003 0.
      2.26384611e-003 -9.00108425e-004 -5.84803987e-004 -3.29964771e-003
      -3.27144749e-003 1.04831681e-002 2.08108756e-003 5.21872891e-003
      1.22851236e-002 5.13561023e-003 -4.08355566e-003 -2.66043516e-003
      5.76721830e-003 3.71845439e-003 2.66391109e-003 0. 1.62523019e-003
      8.95493664e-003 -1.15805981e-003 -5.70714660e-003 2.04497381e-004
      9.88866389e-003 8.31338204e-003 5.19090611e-003 1.23231523e-002
      6.03799615e-003 6.85434416e-003 4.17156843e-003 6.70600962e-003
      -2.47851270e-003 7.99112022e-003 0. 7.72279035e-003
      3.84340528e-003 -4.09999426e-004 -2.77335150e-003 5.33274375e-003
      1.61549449e-003 2.65351869e-003 1.79101387e-003 9.79927275e-003
      -2.36915564e-003 4.34941379e-003 3.09356512e-003 9.85729415e-003
      1.71499199e-003 2.74638156e-003 0. -3.64808436e-003
      3.14606167e-003 1.42690237e-003 -1.25242921e-003 -4.75137786e-004
      -7.76032172e-003 4.36012447e-003 -1.72629289e-003 2.31055194e-003
      -3.09766899e-003 8.12868529e-004 4.41771792e-003 6.31145760e-003
      -4.34306636e-003 -8.05207412e-004 0. -1.33685302e-003
      3.40153021e-003 8.67008418e-003 -3.01064923e-003 -2.87249626e-004
      1.51767512e-003 -4.65789484e-003 1.91592216e-003 -8.35475978e-004
      -8.92324001e-003 -2.12084083e-003 1.71467871e-003 1.94756407e-003
      -4.57243854e-003 5.28581114e-003 0. 1.73296919e-003
      9.11108393e-004 7.56243290e-003 -2.78568571e-003 4.84351534e-004
      -1.09076756e-003 2.31762324e-003 -8.55342951e-004 1.83747115e-003
      3.05128703e-003 2.26969528e-003 2.39813747e-003 3.49158188e-003
      7.58855324e-003 1.13344612e-003 0. -4.57727525e-004
      4.70550804e-005 7.26754684e-003 4.25797142e-003 -5.35743719e-004
      -7.75963860e-003 1.83906232e-003 -3.26956599e-003 -1.37111079e-003
      6.81442209e-003 -8.85487243e-004 6.14704099e-003 9.48471297e-003
      5.99422958e-003 4.09342865e-005 0. -5.38294856e-003
      6.10079430e-003 5.11933165e-003 6.80074422e-003 -5.04415203e-003
      -8.05321988e-003 8.25241557e-004 1.31795078e-003 -6.01372356e-003
      -8.37323081e-004 -1.65936726e-004 5.56439441e-003 5.40365325e-003
      2.42715888e-003 3.37961945e-003 0. -3.72062996e-003
      3.65954707e-003 2.69423588e-003 3.21930886e-004 6.08972088e-003
      -1.04930880e-003 -2.15117633e-003 -3.34894704e-003
      -1.36696908e-004 4.02035005e-003 1.67035428e-003 4.39672265e-003
      -1.55133707e-003 -5.42319613e-003 3.06622265e-003 0.
      -8.10018834e-003 6.28610095e-003 -3.93872662e-003 8.21216870e-003
      3.37966694e-003 -3.52475850e-004 8.84874782e-004 2.43911185e-004
      1.30292354e-003 2.09595333e-003 1.07365369e-004 -1.48450024e-003
      -1.00420890e-002 -1.41894608e-003 -8.71613063e-003 0.
      -3.43290297e-003 8.31628800e-004 6.98564993e-003 2.73259939e-003
      -4.87429556e-003 4.95588221e-003 9.51289374e-004 2.88919313e-003
      -3.42169474e-003 -1.07704289e-003 3.75027792e-003 9.64014232e-003
      2.36744271e-003 -7.37511495e-004 2.48358888e-003 0.
      5.07965265e-003 6.42399304e-004 -6.32865413e-004 3.25529883e-003
      -1.17796799e-003 2.69973068e-003 -5.88261569e-003 8.17147200e-004
      6.23565679e-003 -1.02774100e-003 3.22035770e-003 6.99979300e-003
      6.89520675e-004 -1.56817818e-003 -7.89974176e-004 0.
      1.76640681e-003 1.14461789e-002 3.24002444e-003 -3.39197810e-003
      -4.03238973e-003 1.44148692e-002 4.22121433e-004 -5.38399210e-003
      1.88027986e-003 4.81189042e-003 3.32346093e-003 -7.22804433e-003
      -1.76165462e-003 2.16742698e-003 -8.43612477e-003 0.
      2.37806677e-003 4.40902123e-003 -2.37524300e-003 -4.34766058e-003
      7.87336845e-003 2.58864672e-003 -8.47874326e-004 -6.32643839e-003
      1.50226662e-003 2.26581376e-003 1.68771498e-004 6.25322480e-003
      -3.41863837e-003 9.78007913e-003 1.52077572e-003 0.
      -3.79520166e-003 -6.65441796e-004 1.64714933e-003 3.71272420e-003
      -6.31999876e-003 5.98719856e-003 1.17761106e-003 1.15988520e-003
      -3.35939694e-003 7.09445309e-003 -6.51900936e-003 2.44142604e-003
      1.20472629e-003 3.70792579e-003 6.83522271e-003 0. 3.17243324e-003
      1.02193188e-002 8.16928037e-003 6.08981005e-004 -1.57843970e-004
      6.70759426e-003 5.80095826e-003 3.76021443e-003 -1.19349721e-003
      -1.55433692e-004 -4.91028302e-004 -3.04484018e-003
      -5.62544866e-003 -1.30204053e-003 -4.50722035e-003 0.
      -7.09185982e-003 6.10921951e-003 7.81770214e-004 -4.13126964e-003
      -3.19317303e-004 4.85742465e-003 8.97194073e-003 3.32846947e-004
      1.46503495e-002 4.47659055e-003 -3.04144865e-004 9.46432352e-004
      8.47255811e-004 3.30880564e-003 5.52764069e-003 0.
      -2.49840412e-003 -6.33124961e-003 -9.80720855e-004 5.37942071e-003
      -9.71155590e-004 -3.43685504e-003 6.07324997e-003 8.23170971e-003
      1.84164743e-003 6.34906522e-004 3.09511740e-003 2.31956408e-004
      3.90506652e-003 3.59198172e-003 1.24493800e-003 0. 4.93351556e-003
      -2.45780102e-003 -3.52923479e-003 5.75928669e-003 1.07449060e-003
      4.56521200e-004 4.88097919e-003 3.73427244e-003 1.83881307e-003
      6.38819672e-003 8.86639860e-003 3.29092890e-003 -1.61038758e-003
      6.87389809e-004 5.59107959e-003 0. -4.47903527e-003
      1.06557203e-003 -2.77113402e-003 -5.70313632e-003 -1.33139873e-003
      2.81066797e-003 5.64066228e-003 -1.97881297e-003 3.86922038e-003
      -5.47666242e-003 1.53220724e-003 3.32187768e-003 1.36526965e-003
      -6.42136997e-003 -3.74532025e-003 0. -5.71786053e-003
      -2.60973815e-003 -1.51452818e-003 -9.27372195e-004
      -2.19129818e-003 -1.01634709e-003 -4.44470719e-003
      -1.63135817e-003 2.71114917e-003 -6.47507317e-004 2.11649179e-003
      -3.99064767e-004 2.63447932e-004 4.37292410e-003 -7.73587497e-003
      0. -6.56761043e-003 7.33753573e-003 5.02727320e-003
      1.91365171e-003 -2.30145804e-003 -1.34816102e-004 1.24945107e-003
      -5.05658041e-004 1.38038828e-003 1.48827229e-002 2.79411231e-003
      4.20272676e-003 3.22567910e-004 6.62803324e-003 9.01661755e-004 0.
      5.85472723e-003 5.34152240e-003 1.73410284e-003 -1.84975646e-003
      9.82326921e-003 8.93959496e-003 1.52876962e-003 2.31832080e-003
      -2.07034987e-003 9.23050568e-003 -1.53798168e-003 1.51704461e-003
      1.01901661e-003 1.61693781e-003 -6.56563323e-004 0.
      5.50100673e-003 -4.67185630e-004 9.39928112e-004 -1.28295121e-003
      5.07263467e-004 2.12688674e-003 -3.39938444e-003 -7.42388424e-004
      -7.37668830e-004 -1.73572349e-004 -1.28136715e-003
      -2.04564026e-003 -1.17276853e-003 8.67833570e-003 -5.98505605e-003
      0. 1.96949043e-003 3.04545392e-004 8.18699226e-003 1.99671276e-003
      2.28107255e-003 -4.34275629e-004 -9.61635902e-004 2.04316527e-003
      4.09697974e-003 4.81731538e-003 -2.42601801e-003 -4.78501525e-003
      7.35492911e-003 5.53039182e-003 1.22140697e-003 0.
      -4.95417276e-004 4.40170872e-004 -1.92943553e-003 3.54505843e-003
      -6.63077366e-003 -7.17757456e-003 4.05605184e-003 4.08439919e-005
      4.94111096e-004 -5.73310710e-004 1.42706966e-003 1.63797685e-003
      2.06598267e-003 7.38977455e-004 5.28595783e-003 0.
      -5.88121312e-003 -9.20376508e-004 -3.48922540e-003 3.80217633e-003
      4.37490223e-003 1.17480695e-005 3.44664673e-003 -2.55568139e-003
      -1.05298441e-002 1.34475145e-003 6.02852181e-003 -1.48341712e-003
      -9.01106466e-003 -3.58002872e-004 6.41052425e-003 0.
      3.60046769e-003 2.81469256e-004 1.63539965e-003 5.63664315e-003
      7.57516827e-004 -7.08195730e-004 5.29749040e-003 -3.78944841e-003
      2.27148295e-003 -1.12381997e-003 -5.33018401e-003 1.95518485e-003
      6.44292741e-004 -1.94370587e-005 7.20966281e-003 0.
      2.65630730e-003 3.86648258e-004 7.12243258e-004 -2.02246523e-003
      3.71807395e-003 6.47961954e-003 -6.05726661e-003 8.35033134e-004
      -1.97811169e-003 7.53970025e-003 2.99127365e-004 -3.44142620e-003
      4.30375570e-003 -3.75023956e-004 4.20257961e-003 0.
      9.59343649e-003 -2.14518141e-003 3.85885523e-003 2.35291990e-003
      1.16825588e-002 4.96255700e-003 4.54403972e-003 2.28061900e-003
      1.46969466e-003 3.76159837e-003 -9.88379106e-005 -8.02204013e-004
      1.39816815e-003 1.33216928e-003 4.34826454e-003 0. 1.06830872e-003
      3.86030693e-003 1.61054393e-003 1.18903358e-006 6.24594791e-003
      -6.92725368e-003 1.47248013e-003 -1.91879447e-003 4.70372790e-004
      6.58873236e-003 -3.75776575e-003 -1.85434241e-003 -1.44981686e-003
      4.97062365e-003 -6.23971270e-003 0. -2.71187536e-003
      -2.81505659e-003 -2.87008937e-003 3.63449240e-003 2.36880244e-003
      -1.06615224e-003 2.88999465e-004 4.98808594e-003 6.92405412e-003
      4.65238118e-005 1.78381219e-003 2.69616488e-003 2.32870318e-003
      -3.76866106e-003 4.75017494e-003 0. -3.82500445e-003
      -1.10699004e-003 -1.60537905e-003 -1.78249937e-003 7.69683218e-004
      -4.47459472e-003 5.03732916e-003 4.48482204e-003 7.57785281e-003
      -1.64734898e-004 8.08937941e-003 1.47605769e-003 -4.09099623e-004
      2.99081951e-003 5.63824316e-003 0. -2.10421649e-003
      -5.47384704e-003 -4.26050462e-003 3.40650789e-003 -9.77593008e-004
      1.27485138e-003 1.67524442e-003 8.28744285e-003 6.62389095e-004
      9.80211655e-004 2.91013974e-003 2.15069996e-003 4.01548669e-003
      5.08562941e-003 8.50779563e-003 0. 4.60022129e-004
      -7.19744770e-004 -3.04548361e-004 4.22086427e-003 3.41214007e-004
      3.57243139e-003 1.43243902e-004 1.22142769e-002 2.79222545e-003
      -1.30728330e-003 -1.07018591e-003 7.64117204e-003 -8.07982811e-004
      -3.25067114e-004 -3.54785123e-004 0. 1.85974780e-003
      1.13698468e-003 2.16050423e-003 -3.70229501e-003 2.86189793e-003
      -1.30887399e-003 8.29983409e-003 -4.83595859e-003 3.98791395e-003
      3.78353498e-003 -1.39383983e-003 -5.65508148e-004 -3.61514394e-003
      4.78909397e-003 5.09495987e-003 0. -9.25998297e-003
      -3.96303786e-003 1.19981566e-003 5.38827898e-003 1.74206030e-003
      -3.72919231e-003 3.53944139e-003 1.30842789e-003 4.11122199e-003
      4.84153442e-003 1.41943828e-003 -1.86781352e-003 -3.93544417e-003
      -3.05679906e-003 2.41982704e-003 0. -2.85285455e-003
      -3.34936217e-003 1.19519467e-002 2.11692369e-003 2.35961183e-004
      2.90820980e-003 -4.12766961e-003 1.12530263e-003 -1.61141867e-003
      4.22078744e-003 3.95288877e-003 5.64120896e-003 3.13952449e-003
      -1.15608685e-002 3.96882324e-003 0. 2.20911065e-003
      1.08181639e-003 -7.71148829e-004 -8.07948411e-003 -1.03912794e-003
      -7.85427541e-003 -4.40059789e-003 -2.97881104e-003 4.96240659e-003
      2.00386319e-004 -2.27358914e-003 8.87084228e-004 5.00148861e-004
      -2.55325250e-003 -2.07820814e-003 0. -3.14779743e-003
      -9.55435389e-004 4.63664671e-003 -1.16897281e-003 -5.38002001e-004
      1.06689055e-002 9.04256199e-003 1.23857590e-003 -9.96034851e-006
      -5.42371953e-003 -2.01604608e-003 9.14054178e-003 -1.74785021e-003
      -2.86872685e-003 -3.45746754e-003 0. -1.15906505e-003
      7.78813497e-004 -2.97258538e-003 -1.54342270e-003 -2.60505034e-003
      4.65057645e-004 2.86587107e-004 -3.12718010e-004 1.68936222e-003
      -7.67985242e-004 6.12038093e-006 -4.36387071e-003 1.85602263e-003
      1.15823257e-003 1.18658622e-003 0. -2.27045082e-003
      -7.29235820e-004 1.67849520e-003 2.06303573e-003 8.69248179e-004
      -7.59065896e-003 6.02462748e-003 2.36728787e-003 7.20501586e-004
      -6.04043109e-003 -1.00527459e-003 5.90403518e-003 5.35371574e-003
      -9.29157424e-004 1.40309671e-003 0. 2.34539062e-003
      2.69274373e-004 1.82022527e-003 -5.90588292e-003 8.54388869e-004
      1.45996164e-003 8.34671955e-004 3.41465441e-003 -1.15921418e-003
      -3.64633044e-003 -2.74930405e-003 3.12136515e-004 -1.40752911e-003
      5.75586315e-003 2.12241733e-003 0. -2.14857585e-003
      6.89578243e-003 6.48246787e-004 -5.72904188e-004 4.37714905e-003
      -7.13189272e-003 1.04000252e-002 -1.21669448e-003 1.02597161e-003
      -8.37903237e-004 5.23891766e-003 -7.56010879e-003 8.79093818e-003
      -6.10538665e-003 4.93481848e-003 0. 4.36452404e-003
      -6.48914790e-003 1.76057231e-003 3.56611446e-004 4.95950039e-003
      1.64165376e-005 5.20432973e-003 -1.47019874e-003 -1.34803297e-003
      4.69259638e-003 4.85065207e-003 1.92888593e-003 1.53072923e-003
      1.32941245e-003 6.41041086e-004 0. 1.36433518e-003
      -2.81043700e-003 -1.99040771e-003 3.51689244e-003 6.78647775e-004
      -8.32605641e-004 -7.38538709e-003 2.18721409e-003 -1.72942260e-003
      -2.83196801e-003 -2.16482393e-003 5.42143767e-004 2.26099323e-003
      5.93721983e-004 -9.76805226e-004 0. -4.40871296e-003
      2.43299687e-003 6.97604846e-003 -7.68594537e-003 4.57665126e-004
      4.51068673e-003 6.67607412e-003 -5.22382278e-003 6.21419307e-003
      3.05504538e-004 -6.08115042e-005 -1.48679857e-004 1.26330729e-003
      2.26005679e-003 2.09072139e-003 0. -8.11489881e-004
      -9.81500838e-004 3.99254356e-003 -3.02836415e-003 4.75385366e-003
      -8.73872358e-003 5.76065155e-004 2.69162515e-003 3.20597924e-003
      5.16568031e-003 2.34450257e-004 -4.58319485e-003 6.00120239e-003
      1.80840929e-004 -3.35169607e-003 0. 9.82735539e-004
      6.21217908e-003 2.29168116e-004 -9.76035430e-004 -1.10040919e-003
      6.72532106e-003 8.99576931e-004 -2.49270885e-003 4.46898164e-003
      1.57054653e-003 -1.19172072e-003 -3.18605523e-003 1.13627054e-002
      -5.73181640e-003 1.81014684e-003 0. 3.21874116e-003
      7.10554421e-003 -1.82746048e-003 1.66709139e-003 7.95949833e-004
      7.98637234e-003 -7.02043937e-004 9.92141012e-003 -1.35702582e-003
      -7.60085706e-004 -4.62585565e-004 7.61517440e-004 1.80143194e-004
      4.20324458e-003 -6.88247790e-004 0. 6.24682847e-003
      8.42373818e-003 -1.33294391e-003 1.33212167e-003 2.60457187e-003
      4.19723382e-003 7.84845965e-004 -2.00403878e-003 7.68581964e-003
      5.50627010e-003 1.39398826e-003 -1.85854896e-003 3.21198977e-003
      -7.57771719e-004 -1.72045187e-003 0. -1.52616750e-003
      4.85376408e-003 -6.64493564e-005 1.58219307e-004 -2.61413842e-003
      5.39875240e-004 4.70172986e-003 4.70385421e-003 2.90618162e-003
      7.54043739e-003 2.53357994e-003 3.29558738e-003 -5.72656863e-004
      -1.36992533e-003 -6.70954119e-004 0. 2.50876892e-005
      1.68274308e-003 1.82306324e-003 -2.00826186e-003 5.79089858e-003
      -3.51540558e-003 4.80483565e-003 5.81664685e-003 4.10823897e-003
      -4.08078264e-003 9.72977490e-004 4.57921345e-003 3.30779789e-004
      -3.86906858e-003 -9.15076176e-004 0. -1.76019827e-003
      -9.37712903e-004 4.47993819e-003 1.52452802e-003 -3.73475516e-004
      -2.86109716e-004 7.82735366e-003 2.49207113e-003 -1.54697336e-003
      -3.17676365e-003 4.41903248e-003 4.31182736e-004 -1.95663236e-003
      -3.40054231e-003 1.81341835e-003 0. 6.30381634e-004
      -1.00229379e-004 4.65015694e-003 -3.67166824e-003 3.38849670e-004
      -2.87317857e-003 6.95926719e-004 2.26577697e-003 -3.55079363e-004
      9.89041291e-003 1.05586378e-002 2.73034471e-004 1.51078159e-003
      3.08654760e-003 5.27985906e-003 0. -3.81837948e-004
      -5.03778690e-003 1.08106807e-002 4.16581752e-003 -6.52635936e-004
      1.66444946e-003 5.65293478e-003 -3.93276522e-003 2.97634816e-003
      6.42866455e-003 4.44567343e-003 8.68557487e-003 1.58965099e-003
      3.26928170e-003 6.13917271e-003 0. 1.23975042e-003 3.67701077e-003
      1.89039321e-003 4.43551550e-003 -1.20635214e-003 1.95501978e-003
      1.66562840e-003 -4.24583955e-003 3.00638191e-003 5.00267558e-003
      1.44227047e-003 2.74331402e-003 5.21151396e-003 2.43368582e-003
      1.66692387e-003 0. 6.00165920e-003 2.23967363e-004
      -2.83388421e-003 2.37717456e-003 1.35058875e-003 -9.39227059e-004
      6.38333499e-004 -1.28550921e-003 -1.03510323e-003 -5.28274570e-004
      -4.36586066e-004 5.36530791e-003 -1.23102602e-003 -1.49548368e-003
      -3.23287747e-003 0. -1.41930010e-003 4.21797158e-004
      3.58819240e-003 1.74124877e-003 6.10161247e-003 3.05314874e-003
      1.27034367e-003 1.70560414e-003 6.43442690e-005 1.90207025e-003
      -1.24835444e-003 -1.34054094e-003 1.48179929e-003 3.55856057e-004
      -2.92329746e-003 0. 8.00027233e-003 4.15662164e-003
      3.77369090e-003 -4.92982857e-004 1.37866440e-003 -5.69715397e-003
      2.06222758e-003 6.62952196e-003 1.44432590e-003 2.20199022e-003
      3.20760254e-003 -3.23323230e-003 4.72289650e-003 -4.24575899e-003
      7.42629822e-003 0. -5.62247168e-003 -6.45367103e-003
      4.05621110e-003 3.74769676e-003 5.63125731e-003 -7.69742765e-004
      2.93043978e-003 2.01421394e-003 -6.44293032e-004 -7.25797843e-004
      -5.32039558e-004 -7.82082207e-004 -8.15694046e-004 1.49873248e-003
      2.67836684e-003 0. 3.50530329e-003 -3.60323396e-003
      2.28150981e-003 1.31793960e-003 -5.68572618e-003 -3.52511206e-003
      -2.98743078e-004 4.94349143e-003 -4.54188063e-004 -5.34705026e-003
      3.81538924e-003 1.26215024e-003 -4.72706836e-003 -4.40223375e-003
      5.11691533e-003 0. -8.46300507e-004 -1.11124932e-003
      1.39811600e-003 -5.31444733e-004 8.63383873e-004 1.21985469e-003
      2.92731129e-004 -9.19072540e-004 2.67740834e-004 -7.08487700e-004
      2.20924197e-003 -1.89143606e-003 1.12130644e-003 6.70979265e-004
      2.42548948e-003 0. 3.34854494e-003 1.70336617e-003
      -1.39309652e-003 -4.16134764e-003 -6.42062048e-004 6.23420998e-003
      -3.60959559e-003 9.24177840e-003 4.14382142e-004 -7.64651806e-004
      2.36808695e-003 6.67729974e-003 -4.32139059e-004 5.03983861e-003
      5.15426882e-003 0. 8.03570636e-003 9.15022381e-003 3.34474142e-003
      3.90198990e-003 3.29000643e-004 5.39394701e-003 6.30807248e-004
      3.16689303e-003 3.18293553e-003 -3.22715449e-003 -1.04412425e-003
      -8.57492909e-003 6.84643106e-004 1.58002693e-003 -5.88047726e-004
      0. 1.42998516e-003 5.73191000e-003 -4.02174715e-004
      7.28438422e-003 1.04496768e-002 1.66052094e-004 2.09606532e-003
      6.04660669e-003 7.52929971e-003 7.39900908e-003 -2.51903967e-003
      -2.93467776e-003 1.77365472e-003 3.05422349e-003 -1.88563019e-003
      0. 2.30942341e-003 2.96778767e-003 -1.25363003e-003
      -1.29946554e-003 -5.16597321e-003 1.39155041e-003 1.73171679e-003
      -2.66899192e-003 4.12378507e-003 8.17333627e-003 -3.07977363e-003
      -4.28613217e-004 1.18065234e-002 -5.66321723e-005 -7.33783119e-004
      0. 7.15210335e-003 2.62808613e-003 1.04625747e-002 3.62888444e-003
      4.06469172e-003 -4.87930520e-004 3.42379464e-003 -3.12274857e-003
      -4.53466643e-003 -4.34502400e-003 -2.42832769e-003 8.27807561e-003
      3.28421127e-003 3.11342231e-003 3.33290081e-003 0. 4.22610482e-003
      3.27235041e-003 -4.59012296e-003 4.79614222e-003 -3.05689499e-003
      -4.89107799e-004 5.85146062e-003 -1.40557776e-003 2.16477504e-003
      8.82703252e-003 -1.65628514e-003 1.03001061e-004 4.84028924e-003
      7.03533739e-003 -2.67355214e-003 0. -2.31104041e-003
      -1.04725175e-003 8.10363051e-003 5.82003687e-003 2.20287801e-003
      1.20408519e-003 6.05085306e-003 1.47178106e-003 3.52950837e-003
      -3.38045694e-003 1.03817787e-003 2.07844027e-003 -7.37828494e-004
      -1.78474840e-003 5.73997793e-004 0. -8.29982964e-005
      -9.85548133e-004 5.76420827e-003 2.74045835e-003 -9.87684471e-004
      -1.95868709e-003 1.12014553e-002 3.06927570e-004 1.94565539e-004
      2.19781394e-003 7.12466193e-003 8.14251415e-003 -1.52752514e-003
      -8.14529019e-004 2.96521885e-003 0. -8.36080522e-004
      -1.90676318e-003 -3.63844726e-003 1.29400846e-003 -9.07337759e-004
      3.77394399e-003 5.88668743e-003 -5.59196807e-004 5.80086489e-004
      2.53056269e-003 4.88431193e-003 3.63995344e-003 1.78238878e-003
      -4.17314889e-003 5.85777510e-004 0. 2.85102846e-003
      2.45583453e-003 -1.36483053e-003 5.60172088e-003 -8.74988909e-004
      7.21089495e-003 1.59189908e-003 1.50892977e-003 1.38827204e-003
      2.94870930e-003 -4.02164692e-003 -1.91028672e-003 2.53017480e-003
      -3.73835047e-003 -2.73397687e-004 0. -3.89472186e-003
      2.09890120e-003 -7.53152650e-004 7.15489732e-003 -2.53599574e-004
      -2.05755141e-003 1.59442448e-003 3.54968826e-003 9.42932966e-004
      7.44970236e-003 -1.23137661e-005 4.42816038e-003 -1.01916608e-003
      3.68183409e-003 -2.92699318e-003 0. -1.55540460e-004
      -4.87145968e-003 -5.59414178e-003 -8.90750613e-004 7.39052100e-003
      -7.89793860e-003 -5.90245379e-003 8.85846734e-004 -1.10590667e-003
      9.69635788e-004 2.82541383e-003 -2.92787678e-003 -5.96839054e-005
      -2.09175143e-003 1.58131443e-005 0. -1.23624527e-003
      -2.23803963e-003 -9.51191224e-003 -7.38222618e-003
      -4.49500186e-003 -4.06796625e-003 -1.56608236e-003 2.79489625e-003
      3.26397084e-003 1.75896988e-004 1.63102115e-003 -2.82292278e-003
      -3.97334388e-003 -9.55536554e-004 -3.77943798e-006 0.
      -3.88723961e-003 -2.65763956e-003 -6.35405118e-003 2.83895363e-003
      1.13919470e-003 -6.15052879e-003 2.61268532e-003 -7.98442808e-004
      -4.87722643e-003 -6.95270486e-003 -6.32395083e-003 5.02223731e-004
      -5.63349715e-003 3.87209910e-003 -8.11101170e-004 0.
      -3.06020421e-003 -7.88013713e-005 -5.77322580e-003
      -1.26310508e-003 2.44441954e-003 -2.86663463e-003 -3.09104356e-003
      -4.24679928e-003 -3.64951370e-003 4.38580150e-003 -2.99714250e-003
      -3.12893000e-003 -5.71332080e-003 -3.77733260e-003 7.84207601e-003
      0. -1.60480166e-004 1.30728190e-003 2.68043601e-003
      -5.38159162e-003 -1.19432900e-003 5.11966739e-003 1.92461989e-003
      -4.99133719e-004 -2.71269819e-003 7.95136485e-003 -2.33820407e-003
      -4.61489835e-004 -3.30265058e-004 2.96094734e-003 2.25449214e-004
      0. -8.92482698e-004 4.07058513e-003 5.61996596e-003
      -1.34007516e-003 -1.71721797e-003 6.05767244e-004 4.71091177e-003
      4.54226928e-003 -2.13014148e-003 4.04360238e-003 -2.63330503e-003
      -6.12182496e-003 1.03826658e-003 4.13431815e-004 2.60114181e-003
      0. 1.91317871e-003 3.59732279e-004 1.32525200e-003 2.00383272e-003
      6.95125153e-003 1.52442977e-003 -3.25159030e-003 -1.31937803e-003
      -1.44900172e-003 2.64587603e-003 1.88109954e-003 -2.53856485e-003
      5.72342612e-003 1.65689315e-004 -1.03783398e-003 0.
      6.76390389e-003 1.33180087e-002 -2.52549630e-003 1.82640238e-003
      -9.12675634e-004 1.61624432e-003 -4.06439928e-003 -4.46314178e-003
      -1.12020527e-003 8.37316457e-003 -5.65022696e-003 -2.08601123e-003
      1.14473570e-002 1.52341498e-003 -6.46402186e-004 0.
      4.68576374e-003 -1.58318784e-003 -1.61436910e-004 -1.88331318e-003
      -6.75861211e-003 1.01834664e-003 3.45565309e-003 -1.65752647e-003
      1.37344049e-003 2.19108275e-004 -2.80475384e-003 -2.23432854e-003
      -3.62511288e-004 2.38473341e-003 -3.50037660e-003 0.
      1.51234842e-003 2.39258772e-003 -4.57344856e-003 -3.05944635e-003
      5.15832612e-003 7.25199468e-003 -5.16210894e-005 2.78226170e-003
      -1.07824302e-003 -1.79186440e-003 -1.15078222e-003 1.41058338e-003
      -2.04491243e-003 7.98044261e-003 -3.55416560e-004 0.
      -1.16921111e-003 6.44329237e-003 -6.17663085e-004 -3.52818356e-003
      3.70024308e-003 3.85575392e-003 2.17424589e-003 5.17135579e-003
      3.38755874e-003 2.51349818e-004 5.78204356e-003 6.56875549e-003
      -4.97664674e-004 6.68017473e-003 5.42834261e-003 0.
      1.73808148e-004 1.22822227e-003 -9.94344708e-004 -3.52237286e-004
      -1.22460406e-004 7.52474926e-003 -2.29096483e-003 2.57637096e-003
      5.77182363e-005 1.73096755e-003 1.17553417e-002 -1.09357270e-003
      5.30737569e-004 1.58700848e-003 1.25145470e-003 0.
      -2.70094466e-003 -1.61513657e-004 -7.34901102e-003
      -1.09379740e-004 8.26011470e-004 -2.81550543e-004 3.84519994e-003
      8.79505882e-004 1.01099291e-003 -4.33898793e-004 -9.04162414e-004
      2.50020623e-003 -5.20902511e-004 1.01382926e-003 -1.86732842e-003
      0. 1.37913739e-003 -1.70217652e-003 5.26958331e-003
      5.37119946e-003 -5.65205293e-004 2.05069897e-003 6.10383041e-003
      4.44018794e-003 1.44281413e-003 -2.57581007e-003 5.86236268e-003
      4.94281854e-003 3.24044283e-003 -2.38809199e-003 1.28876360e-003
      0. -8.40154826e-005 -3.07187694e-003 2.73036421e-003
      -2.07577323e-004 -3.60924797e-003 1.37401687e-003 1.65469397e-003
      -1.76225672e-003 -4.04640567e-003 5.05994121e-003 -5.04355365e-003
      4.92677465e-003 2.24719127e-003 1.36371295e-004 3.82550852e-003 0.
      -2.98388232e-003 3.61407897e-003 1.58350810e-003 -1.53307710e-003
      6.98505435e-004 -1.31400931e-003 -3.29860672e-003 -2.43562227e-003
      3.87018803e-003 2.26341654e-003 -5.78572741e-003 -1.97404763e-003
      -1.51544763e-003 1.98057061e-003 -2.86250073e-003 0.
      1.21382624e-003 -3.09497956e-003 2.68661999e-003 4.37047274e-004
      3.23532918e-003 8.32989812e-004 -1.08140684e-003 4.18376084e-003
      -1.39744283e-004 3.75655154e-003 -7.08651962e-004 -7.12396053e-004
      -3.49894399e-003 2.39056931e-003 1.05815532e-003 0.
      -3.20175686e-003 3.03293837e-005 1.78721792e-003 2.71946355e-003
      -7.29201501e-003 -4.40461189e-003 7.19779564e-005 2.61286134e-003
      1.47428398e-003 -4.59004892e-003 3.73730063e-003 -1.60697126e-003
      -3.54889291e-003 3.08167026e-003 1.70297746e-004 0.
      1.47794129e-003 6.47874258e-004 -5.00442227e-003 2.69766920e-003
      2.77818576e-003 -2.83482904e-003 -1.62855631e-005 1.62641006e-003
      2.05437234e-003 -2.68578413e-003 1.81200984e-003 -1.14688031e-004
      -7.12061999e-004 9.57675837e-003 -8.68156261e-004 0.
      -1.79651042e-003 7.34772300e-004 -1.01295463e-003 -3.84812010e-003
      -6.79464370e-004 -9.36872908e-004 -2.01222650e-003 2.79955869e-003
      -7.98999463e-005 2.37236707e-003 -2.25912174e-003 -1.60629395e-003
      1.94314029e-003 -1.02814600e-004 3.80351883e-003 0.
      -2.42159492e-003 -1.23232207e-003 -4.33631008e-003
      -3.14115803e-003 -5.17206825e-003 -2.28160969e-003 6.65559852e-003
      1.78118318e-003 5.08796563e-003 -1.44660822e-003 -2.13533151e-003
      3.41551448e-003 8.30810401e-004 -1.21314821e-004 -7.89900369e-004
      0. 1.76042158e-004 2.58939737e-003 -1.05063198e-003
      2.58457707e-003 -1.94942718e-003 -2.72937142e-003 4.30166209e-003
      -5.57257282e-003 -1.31967315e-003 -1.85423368e-003
      -9.47393104e-003 -5.58636896e-003 -4.37951554e-003 1.52249541e-003
      -2.56098784e-003 0. -4.56590299e-003 -6.27898099e-003
      -9.70712746e-004 -5.01939189e-003 -3.05532524e-003 1.02164340e-003
      1.20360847e-003 3.71832139e-004 -6.19028369e-003 4.24659764e-003
      -7.17625767e-003 -5.75601414e-004 2.96198670e-003 6.49019275e-005
      2.01134104e-003 0. -4.03846987e-003 2.36204971e-004
      -1.55818532e-004 7.82587595e-005 6.94141258e-004 1.36396533e-003
      -6.96999836e-004 1.39732256e-005 2.10540881e-003 -3.33145517e-003
      -3.68711026e-003 7.03313388e-004 3.09677026e-003 2.97873456e-004
      -2.66364277e-005 0. 5.39737800e-003 1.82303740e-003
      1.02736836e-003 -1.99694349e-003 1.08110067e-003 -5.69405907e-004
      5.19625901e-004 8.01774324e-004 3.66876717e-003 1.79894641e-003
      1.57768955e-003 -1.47254707e-003 9.19748971e-004 1.39633159e-003
      3.09277605e-003 0. 3.28429654e-004 -3.36492194e-005
      9.48963966e-003 -5.22914855e-003 5.42057492e-003 -4.00755880e-003
      1.68499013e-003 -1.62452413e-003 -1.14601711e-002 3.86316725e-003
      5.10525890e-003 5.70309674e-003 4.60061338e-003 3.32841859e-003
      2.36781561e-004 0. -1.18320831e-003 5.98458806e-003
      3.01220771e-005 1.50392577e-003 4.62894933e-003 7.72255333e-003
      -4.91754757e-003 -4.67958534e-003 -2.30086080e-004 7.69343926e-003
      -6.12995354e-003 -1.20253034e-003 1.83390686e-003 -2.47123372e-003
      -1.07007902e-002 0. 6.10157032e-004 -8.02449533e-004
      -8.42514855e-004 -1.24036917e-003 1.91347580e-003 4.24000062e-003
      -4.61456738e-003 4.17025015e-003 7.00407941e-003 -2.21333656e-004
      -1.52626226e-003 9.63256229e-004 9.54720192e-004 -1.38330483e-003
      3.56516987e-003 0. -5.71915740e-003 -8.13049905e-004
      4.46180021e-003 2.91865715e-003 2.55209161e-003 4.35974775e-003
      6.06682291e-003 -2.72754859e-003 -3.04816710e-003 -6.08344097e-004
      1.95447542e-003 5.96723380e-003 -1.84648309e-003 -8.89456074e-004
      -1.02099229e-003 0. -8.52836471e-004 -3.93259572e-004
      -7.62490788e-004 4.26758546e-003 1.01018557e-003 2.27800381e-004
      -5.25577506e-003 5.23928041e-003 -1.54549525e-005 -2.71390704e-003
      3.86876473e-003 -8.77358776e-004 -1.69392547e-003 6.67363405e-004
      5.80543047e-003 0. 2.28481120e-004 -7.01724086e-004
      -3.59060173e-003 3.05151637e-003 2.11119978e-003 -5.56494249e-003
      -3.18463193e-003 1.81042461e-003 1.43199775e-003 -2.29309220e-003
      1.41744269e-003 8.02289462e-004 5.30006690e-003 -2.03739479e-003
      2.50260672e-003 0. 8.17200053e-004 -9.65723593e-004
      3.45761748e-003 -4.29676240e-003 -5.25073987e-003 -1.09244499e-003
      -3.82828107e-003 6.14633609e-004 -9.35500022e-004 3.35516036e-003
      -2.03927793e-003 -1.89237215e-003 -1.39328337e-003 3.33849993e-003
      -3.72562557e-003 0. 1.74489513e-003 -4.41474281e-003
      -2.02923920e-003 3.90383345e-003 8.85182340e-003 2.68320553e-003
      -1.37785252e-003 -1.89341124e-004 5.99800982e-003 -1.46730948e-004
      -3.75863467e-003 -2.49031559e-003 -4.27682698e-003
      -2.71894736e-003 -2.72495183e-003 0. -5.05788112e-003
      -3.04838899e-003 7.22858356e-004 7.24938093e-003 2.31521227e-003
      4.76945285e-003 5.27852168e-003 8.00509239e-004 1.61941873e-003
      1.13081466e-002 5.36271464e-003 4.57593286e-003 1.23846007e-003
      7.56150158e-003 -1.88743099e-004 0. 7.28118885e-003
      6.21993840e-003 -7.00540899e-004 3.93825071e-003 4.32322687e-003
      4.53991117e-003 -1.77554821e-003 -7.50728534e-004 3.24369961e-004
      6.80954661e-003 -6.18444290e-003 -2.34733592e-003 6.84607029e-003
      -2.79335305e-003 5.14926156e-004 0. 1.94861961e-003
      -5.51596563e-003 1.55005709e-003 2.69429525e-003 -1.82336918e-003
      5.45576680e-003 4.42889938e-003 1.26167166e-003 4.56352020e-003
      7.86952558e-004 -4.53983108e-003 7.46142259e-003 5.52732591e-003
      -4.44482779e-003 5.86539879e-003 0. 8.53823731e-004
      -5.88717463e-004 -2.95410026e-003 -2.59391940e-003
      -3.38153471e-003 -1.70285290e-003 2.12558149e-003 2.11996003e-003
      -5.22113033e-003 1.59277231e-003 -1.24715152e-003 -6.37687324e-003
      -2.60162214e-003 2.53471895e-003 -2.37078196e-003 0.
      3.20369564e-003 3.35914874e-003 4.85445326e-003 -2.63739144e-003
      -1.23967766e-003 -1.84734992e-004 -4.80392046e-004
      -1.06048922e-003 8.54828977e-005 -1.60558603e-003 6.87241321e-003
      5.26354823e-004 3.30927403e-004 3.03821987e-003 -1.91365674e-004
      0. 2.98763555e-003 1.82080653e-003 -2.83421576e-003
      -1.11250200e-004 7.68592756e-004 2.59727263e-003 -3.94992996e-003
      -1.63940224e-003 -1.55414536e-003 -2.57607619e-003
      -7.00124481e-004 1.59832393e-003 1.52205548e-003 2.00980250e-003
      9.45591368e-004 0. 7.47926394e-003 4.49824426e-003
      -1.44885830e-003 6.59161538e-004 2.66077695e-003 1.78714795e-003
      -3.68596148e-003 2.24101241e-004 3.68831726e-003 2.77608400e-003
      -4.98430990e-003 -9.40290454e-004 6.66526007e-003 -6.94276905e-003
      2.89497111e-004 0. 1.63411256e-003 -7.67643983e-003
      2.32267706e-003 3.38082318e-004 1.43089273e-003 -1.42154482e-003
      -5.61730412e-004 8.58848740e-004 1.01961121e-002 2.21527577e-003
      -2.87384290e-004 3.13075818e-003 -1.13996631e-003 6.22262200e-003
      -4.24838625e-003 0. -3.01030057e-004 8.56931962e-004
      1.89773994e-003 5.72088640e-003 -2.11181841e-003 7.01034488e-003
      -4.98659071e-003 3.67189245e-003 -1.57260441e-003 -2.37410818e-003
      -4.08863835e-003 3.56885768e-003 -2.03034701e-003 1.40456564e-003
      1.94211688e-003 0. 2.13626958e-003 3.37526225e-003 1.90797064e-003
      -6.97067939e-003 4.21329867e-003 -3.30520864e-003 1.34858198e-003
      4.48141666e-003 9.23774423e-005 -1.54223188e-003 -4.56950534e-003
      -1.77186215e-004 -2.32893811e-003 2.67468579e-003 -2.04955600e-003
      0. -3.00387410e-003 9.55412572e-004 1.77667744e-003
      7.35907769e-003 -5.07737510e-004 3.73578304e-003 -1.14369998e-003
      5.75046579e-004 6.13179896e-003 2.23719329e-003 5.12471714e-004
      -1.04631959e-002 -1.58956484e-003 7.79873342e-004 2.08064355e-003
      0. -3.00793536e-003 -5.44335089e-005 2.36315257e-003
      4.96283115e-004 5.54228667e-003 6.40844274e-003 -5.48777124e-003
      -1.00145617e-003 -2.70405319e-003 -7.67441641e-004 9.01597552e-003
      8.90716352e-003 -3.50904372e-003 2.67166574e-003 1.61550159e-003
      0. -2.42145569e-003 -1.07773999e-003 1.15511916e-003
      5.57318190e-003 2.75228429e-003 1.84465537e-003 2.22831080e-003
      3.51826171e-003 -1.89605751e-003 4.05596755e-003 1.30521847e-004
      3.12875444e-003 -5.28890733e-003 1.97239709e-003 -2.72845919e-003
      0. 1.31289940e-003 -4.89608431e-003 8.66109855e-004
      4.49229451e-003 -3.85826756e-003 2.17789249e-003 -4.43725055e-003
      5.29283483e-004 4.82447539e-003 -5.02488762e-003 4.62121534e-005
      2.82987749e-004 6.98570581e-003 3.69535154e-003 9.78481723e-004 0.
      1.22145936e-003 6.44723361e-004 -4.68819728e-003 -8.35081737e-004
      -1.51539606e-003 1.02158205e-003 -3.38810380e-003 -1.67591893e-003
      -6.64033182e-003 -1.63706625e-003 -3.45368125e-003 9.92935966e-004
      1.97758060e-003 2.21836707e-003 2.98731728e-003 0. 2.21202103e-003
      -2.80700973e-003 3.16843251e-003 1.20411976e-003 1.38264243e-003
      3.69034684e-003 -7.69560575e-004 -2.51157209e-003 -3.12524196e-003
      2.37113284e-003 1.51736969e-002 8.79489060e-004 4.11523879e-003
      2.54064071e-004 1.21939275e-003 0. -2.75208778e-003
      4.98977024e-004 4.47825034e-004 -4.17847093e-003 4.34989948e-003
      8.84881243e-003 5.93774114e-003 2.26660096e-003 -2.24976626e-004
      2.87183118e-003 -1.75745226e-003 4.77783242e-003 9.67628881e-003
      3.30597581e-003 3.56273656e-003 0. 3.22030828e-004 2.72677070e-003
      1.01982907e-003 5.05890930e-003 1.02018227e-003 4.45371121e-003
      1.71011186e-003 1.11901783e-003 3.61237652e-003 -2.73794169e-003
      3.12537444e-003 7.99189694e-003 -2.52875313e-003 5.64260967e-003
      7.37744558e-004 0. 4.39158781e-003 -2.99693947e-003
      3.47893592e-003 3.09138908e-003 -3.58272437e-003 9.53371823e-003
      3.38209560e-003 3.82452086e-003 -3.86046409e-003 -6.21929625e-003
      4.27351054e-003 -2.15844135e-003 5.82642853e-003 -1.93056476e-003
      2.89779506e-003 0. 3.13076796e-003 -1.05826766e-003
      -7.12763751e-003 -7.21685137e-005 -2.09998037e-003 3.13514890e-003
      4.47295420e-003 -2.54854211e-004 -2.58711167e-003 -1.98018132e-003
      -4.44732467e-003 -2.25484441e-003 -6.38035499e-006
      -3.75350891e-003 -2.62752466e-004 0. -1.40480499e-003
      1.31254946e-003 -7.71680672e-004 -4.12006536e-003 -1.32044998e-003
      1.38666059e-004 8.25385214e-004 -3.99301061e-003 -9.96224117e-004
      1.65685115e-003 -4.73475875e-003 -2.83393892e-003 -4.34872089e-003
      -1.48735417e-003 7.06255063e-003 0. -3.43230180e-003
      3.34786088e-003 6.82356884e-004 -9.02584638e-004 8.90917261e-004
      1.00024138e-003 -6.64804783e-003 2.41224584e-003 5.54812505e-005
      3.96046648e-003 8.36027146e-004 3.91081296e-004 6.63064420e-004
      -1.21054531e-003 -2.88403151e-003 0. 1.00965984e-002
      8.22329707e-003 -3.30849551e-003 -2.92335963e-003 3.62797012e-003
      -8.36539606e-004 -4.12364118e-003 2.30660336e-003 9.19211004e-003
      -3.98527086e-003 2.08644220e-003 4.80203424e-003 3.56831518e-003
      1.51058508e-003 -1.33036345e-003 0. 2.17146729e-003
      -2.92674429e-003 -6.49297331e-003 3.92519077e-003 -6.76186522e-003
      -1.49753795e-003 -5.27813239e-003 3.91225796e-003 -2.13426747e-003
      1.78701663e-003 -1.24404859e-003 2.68509006e-003 1.00360624e-003
      5.55422669e-003 -2.36873771e-003 0. 4.23117774e-003
      2.55875452e-003 -1.92352617e-003 3.11930175e-003 3.72414081e-003
      6.56140794e-004 -2.29690643e-003 -3.80315410e-004 -4.57491726e-003
      -1.60034269e-003 3.55645479e-003 1.49196049e-003 2.51226709e-003
      -3.97334201e-003 -8.63175932e-003 0. 7.28562765e-004
      -4.15840512e-003 5.48995798e-003 3.24857258e-003 -3.75223870e-004
      -4.38635121e-004 2.17278997e-004 3.36338836e-003 1.67405023e-003
      1.44304754e-003 -1.96707994e-003 -2.76688836e-003 -1.65874604e-003
      -2.23391893e-004 6.25551853e-004 0. 7.35252455e-004
      9.61283979e-004 -2.29780539e-003 3.39193759e-003 7.22992560e-003
      6.68391585e-004 6.74836803e-003 5.06665371e-003 -6.90292218e-004
      -2.87933927e-003 6.11466635e-003 6.02904614e-003 1.64672104e-003
      1.88597629e-003 -7.52601307e-003 0. -2.11672578e-003
      5.35921950e-004 6.88879285e-003 6.45802647e-004 -1.17565818e-004
      4.45338059e-003 6.47710962e-003 1.16550247e-003 -4.14463039e-003
      5.38589491e-004 -1.57274702e-003 4.56565805e-003 -4.07139247e-004
      1.29413558e-004 1.12756062e-002 0. 6.78008888e-004 4.40140604e-004
      -4.10335138e-003 -1.15185976e-003 -3.37718660e-003 1.99203403e-003
      4.53291368e-003 1.44509738e-003 -1.57162175e-003 5.05404826e-003
      -1.53467339e-003 2.05180579e-004 -3.05888010e-003 -5.70874568e-003
      1.36052060e-003 0. -5.18851494e-003 2.19494314e-003
      3.54133721e-004 9.94932721e-004 -1.60269463e-003 5.28569892e-003
      -2.59863725e-003 2.87165225e-004 6.56835875e-003 -1.94231002e-003
      -9.51632217e-004 -1.90112612e-003 -3.75574362e-003
      -1.59701012e-004 4.32295073e-003 0. -1.55232009e-003
      5.73405414e-004 -1.68020837e-003 -4.10784793e-004 -3.38672101e-003
      2.90699326e-003 2.77033472e-003 4.03173035e-003 -1.37456309e-003
      -7.33374909e-004 -1.92649558e-003 -2.74995808e-003 2.37029232e-003
      -2.04681163e-003 3.35632451e-003 0. -7.32091907e-003
      -3.56691959e-003 2.65646423e-003 3.91342258e-003 -3.08394479e-003
      -9.84562282e-003 3.09327082e-003 -7.87371013e-004 5.20297850e-004
      -3.20709730e-003 -6.76913559e-003 4.85980563e-004 -2.95635290e-003
      3.29286326e-004 3.93824279e-003 0. -6.09269249e-004
      -1.31605437e-003 1.65869237e-003 3.78821336e-004 2.16461346e-003
      2.01800419e-003 8.69206339e-003 -4.30878630e-004 -3.52410600e-004
      1.69816008e-003 2.66188872e-003 4.58227843e-003 2.59064650e-003
      -1.21016009e-003 1.43550534e-003 0. 4.44201380e-003
      2.45468551e-003 -7.04671210e-003 -4.35964996e-003 -2.00378615e-003
      -3.62389232e-003 -6.42272644e-003 -4.07047244e-003 8.84674955e-003
      2.25706783e-004 -8.16456322e-003 2.02937750e-003 1.17701362e-003
      -2.33249040e-003 2.09691981e-003 0. -3.70297232e-003
      -1.02491444e-003 9.11276264e-004 -5.44220675e-004 2.30218144e-003
      3.43868928e-003 7.14388769e-003 -8.38928332e-004 6.39013306e-004
      -6.80252269e-004 1.17146631e-003 1.64016848e-003 -8.24003480e-004
      -2.95132864e-004 -2.18109461e-003 0. 2.22962792e-003
      2.06644018e-003 -2.94646318e-003 5.09619294e-003 -6.38064987e-004
      5.71991026e-004 3.41415126e-003 -2.89498409e-003 6.07155357e-003
      -9.28032503e-004 -2.50758254e-003 -3.79334902e-004 7.25693244e-004
      -2.70833354e-003 1.95427652e-004 0. 3.53931193e-003
      -8.45747199e-005 -1.68640062e-003 4.68761800e-003 1.92023930e-003
      2.21612518e-005 3.28694726e-003 -2.91768508e-003 2.94585433e-003
      -2.94585037e-003 -2.64682830e-003 4.63833613e-003 -9.25000699e-004
      2.98289524e-004 -1.02351455e-003 0. 5.40581206e-003
      -2.05390458e-003 -3.73505917e-003 1.32430100e-003 -3.59556824e-003
      4.42462973e-003 -4.10439214e-003 7.76502711e-005 1.13344949e-003
      2.74323556e-003 -6.74113212e-003 5.64409827e-004 -6.38998521e-004
      2.39217072e-003 5.55525883e-004 0. 1.10256067e-002 3.77174327e-003
      -1.98743842e-003 2.25963024e-003 3.94147588e-003 -5.77396131e-005
      2.81198043e-003 6.16625359e-004 4.78490628e-003 4.22718935e-003
      -2.56859977e-003 1.91561785e-003 4.10132250e-003 1.06236571e-003
      3.20587773e-003 0. -3.13160778e-003 1.17127434e-003
      2.20585079e-003 -2.45596701e-003 -9.23071639e-004 -1.61002728e-003
      4.48397035e-003 -2.10540509e-003 -8.12064463e-005 5.75002236e-003
      3.82927153e-003 2.07305234e-003 3.70106683e-003 -3.28634121e-003
      1.97587162e-003 0. 2.41577951e-003 2.88799568e-003 2.96183163e-003
      3.75176896e-003 4.66479547e-003 2.90595926e-003 6.71974383e-003
      1.66617509e-003 1.28699595e-003 3.81123449e-004 -3.20582738e-004
      -1.11760641e-003 5.26978262e-003 5.40147210e-003 7.53078377e-004
      0. -1.27523043e-003 -3.69651779e-003 -3.85483890e-003
      -7.68115046e-004 -2.09273770e-003 8.12652800e-003 3.27812834e-003
      1.11072534e-003 -3.28454631e-003 5.92057779e-003 -9.71968519e-004
      -2.88210763e-003 -6.31251093e-003 1.18796166e-003 -2.49098048e-005
      0. -5.16652071e-004 -2.96058808e-003 3.33195925e-003
      3.20077897e-003 1.49576634e-003 2.66338931e-003 7.61329848e-003
      3.71146458e-003 -8.04779003e-004 2.83016427e-003 -1.06457376e-003
      2.70925084e-004 -1.05608103e-003 7.86685944e-003 4.96270321e-003
      0. -3.01143643e-003 -4.40787117e-005 5.95986005e-003
      -2.47023697e-003 3.75923351e-003 1.33085262e-003 -2.61068135e-003
      7.67813821e-004 1.82684010e-003 4.47070197e-004 5.63737750e-003
      2.66979728e-003 1.52959698e-003 -3.56854958e-004 -3.54651769e-004
      0. 2.16650747e-004 -3.76638002e-003 6.28062291e-003
      -4.53256042e-004 -1.60620839e-003 6.52233884e-003 2.98523839e-004
      -3.92677903e-004 -2.40196649e-004 -2.46014749e-003 4.41888813e-003
      1.63365097e-003 -2.27156980e-003 3.28923366e-003 3.00586154e-003
      0. 5.32932067e-003 1.07952765e-004 -1.12488202e-003
      5.19633817e-004 8.21904000e-003 2.52732635e-003 -5.59472293e-003
      7.04035209e-003 -2.58162571e-003 -3.30947543e-004 9.61610640e-004
      -5.60842454e-003 -1.40001450e-003 3.71401361e-003 -1.65985941e-004
      0. 2.91722681e-004 4.40964801e-003 -8.23075045e-003
      5.00239013e-003 -1.89298810e-003 -9.94168950e-005 -2.20456347e-003
      -5.66184102e-003 -5.57498948e-004 -2.44603492e-003
      -5.24753425e-003 2.93982401e-003 1.77704799e-003 -2.04905611e-003
      -6.37169229e-003 0. 2.44503259e-003 -4.64224815e-003
      8.82698223e-003 -1.06191612e-003 1.84118096e-003 1.18425675e-002
      2.37423158e-003 1.67534058e-003 -3.66153894e-003 3.71849420e-003
      -1.43607717e-003 4.00319375e-004 1.97260990e-003 -4.54778969e-003
      -2.92094913e-003 0. -1.45701692e-003 4.28393716e-003
      3.49933747e-003 -3.93160706e-004 -3.11360927e-003 5.00068115e-003
      3.42170754e-003 2.30910140e-003 5.11564640e-003 1.91318092e-003
      2.14016344e-003 -4.51441295e-003 -5.37671498e-004 2.08160403e-004
      -3.53983254e-003 0. -2.48108350e-004 -1.50625512e-003
      8.75545011e-005 2.56525306e-003 9.74032911e-004 -4.75391233e-003
      -5.77895623e-003 -2.70390743e-003 -2.09274958e-003
      -2.52679019e-004 3.54450778e-004 1.87126815e-003 -1.90627703e-004
      -5.41243237e-003 -1.68070919e-003 0. 4.54965048e-003
      -4.39282972e-004 -3.69376456e-003 1.00088343e-002 -3.33305658e-003
      6.48558419e-003 2.94709695e-003 1.48386392e-003 1.92998408e-003
      -1.82814023e-003 -6.97187288e-003 2.42591440e-003 5.06130280e-003
      6.61145523e-003 -3.92146735e-003 0. -7.89396639e-004
      -2.35714507e-003 -4.79660043e-003 2.94901035e-003 -5.30438730e-003
      2.26029384e-004 4.20287903e-003 -1.17011390e-004 -4.73381020e-003
      -5.11048036e-003 -8.21879320e-003 2.60817609e-003 1.09549111e-003
      -3.53036867e-003 -6.27760263e-003 0. 3.83506436e-003
      -3.11581115e-003 -3.82653088e-004 -1.46667729e-003 4.36685421e-003
      3.56892520e-003 4.90222732e-003 -3.41429375e-003 9.13362135e-004
      -1.51786939e-004 2.55594263e-003 8.40662047e-004 -1.70804432e-003
      4.34966572e-003 -1.52682455e-003 0. 3.73977376e-003
      1.82468793e-003 -2.71971594e-003 -4.43457579e-003 4.46272129e-003
      1.75399752e-003 1.59871078e-003 -2.80556246e-003 -1.73398899e-003
      1.52643339e-003 -5.98401472e-004 2.41336599e-003 -1.59860251e-003
      -1.34882750e-003 -1.88212271e-003 0. 7.07056047e-003
      6.26183464e-004 -9.83056496e-004 -6.36794325e-003 2.74501019e-003
      -6.83144608e-005 3.95645184e-004 -5.80579566e-004 1.42642308e-003
      3.46470485e-003 5.03187068e-003 8.57238367e-004 -2.78237090e-003
      2.01087072e-003 -2.28213985e-003 0. 4.45660145e-004
      5.39484259e-004 -2.31776875e-003 -3.42095806e-003 5.12186065e-003
      6.43661944e-003 1.82510470e-003 4.73493524e-003 4.79405979e-003
      4.48058452e-003 -2.84132641e-003 -9.54533834e-003 7.34894816e-003
      -3.01374239e-003 2.43747514e-003 0. -4.49967250e-004
      -6.58803794e-004 -8.70756712e-003 2.70386273e-003 -3.03440238e-003
      -2.59068003e-003 2.15842552e-003 -1.96950091e-003 6.26523327e-003
      -3.65416962e-003 1.37470302e-003 -5.48072346e-003 -5.52750845e-003
      2.98650959e-003 -2.04299013e-005 0. 4.55574738e-003
      5.95954573e-003 -1.73723116e-003 -3.51212849e-003 1.28522085e-003
      -3.16010788e-003 6.78066351e-003 -1.31422665e-003 4.11329279e-003
      5.43204881e-003 5.44721773e-003 -1.38456374e-003 4.83152922e-003
      1.64010783e-003 3.54722305e-003 0. 1.84516760e-003 1.04740802e-002
      3.01735196e-003 -3.11605423e-003 8.98836367e-003 2.72947480e-003
      8.96885153e-003 5.34347724e-003 2.13104486e-003 8.91833333e-004
      1.37566857e-003 9.44463711e-004 5.02019469e-003 6.95826439e-003
      2.51914538e-003 0. 3.09856934e-003 -7.13708869e-004
      4.22171596e-003 -1.57797965e-003 6.09485479e-003 1.79645000e-003
      3.52604012e-003 1.26480858e-003 -7.69989158e-004 -1.63977104e-003
      -2.71338783e-003 -3.32219759e-003 1.29128667e-003 2.35721190e-003
      4.77950275e-003 0. 3.63774807e-003 2.40930845e-003
      -5.13135048e-004 2.73657031e-003 1.37955431e-004 -3.81161575e-004
      5.08257933e-003 2.49298220e-003 1.38993142e-003 -3.23196989e-003
      1.24512669e-002 7.13461777e-004 8.28202069e-003 -2.73025967e-003
      2.61607231e-003 0. -2.16221670e-003 1.62528231e-004
      8.60461907e-004 6.06890768e-003 9.15096607e-003 -1.07804232e-003
      3.05558858e-003 -2.03851290e-004 -5.62765868e-004 1.64246291e-003
      5.39979059e-003 4.57733963e-003 3.05602746e-003 -5.21761458e-003
      3.30217241e-004 0. 2.36742571e-003 4.89457557e-003 3.79228988e-003
      3.31364980e-004 5.11896145e-003 8.77188286e-004 1.36571715e-003
      2.37722695e-003 9.83015707e-005 2.44497485e-003 4.22031246e-003
      8.36678129e-003 -2.78415135e-003 1.04977712e-002 8.79516453e-003
      0. 7.41007226e-003 1.70430273e-003 -5.83884830e-004
      -8.01201677e-004 5.83041832e-003 1.24485508e-004 3.55890184e-003
      -7.33529963e-003 -2.42575817e-003 5.46999369e-003 -3.24618537e-003
      -2.54040631e-003 -1.79595407e-003 2.53220345e-003 2.60354194e-004
      0. 6.39413809e-003 5.31003671e-003 -1.66619953e-003
      -6.15016557e-003 1.11165165e-003 5.79800969e-003 4.48907074e-003
      -9.09654330e-003 5.03974035e-003 4.01008350e-004 2.57592788e-003
      -2.28404137e-003 6.46085304e-004 3.02589405e-003 -1.76516478e-003
      0. 4.37710620e-003 2.03017658e-003 -1.65732938e-003
      1.29697821e-003 4.47391940e-004 -6.02863613e-004 -1.31280744e-003
      2.92812707e-003 4.55407472e-003 4.71928390e-003 -4.67647624e-004
      3.86557134e-004 2.37979973e-003 1.76020281e-003 7.28133274e-003 0.
      2.90636759e-004 -2.92133586e-003 -5.28429914e-003 5.41144889e-003
      1.44003460e-003 5.83252870e-003 -5.28226420e-003 2.05787760e-003
      2.61091220e-004 1.07525091e-003 2.41423119e-003 -4.71792475e-004
      6.88931067e-003 -1.70386280e-003 1.34079938e-003 0.
      -5.40674431e-003 1.01601891e-003 3.93022696e-004 3.64342966e-004
      2.44186912e-003 2.21230742e-003 4.43448033e-003 4.35972726e-003
      -1.64860766e-003 -1.98654318e-003 4.76905145e-003 -2.16435781e-003
      6.51953509e-003 5.93807036e-003 -1.85781144e-004 0.
      3.67105706e-003 3.63584171e-004 -6.05842378e-003 -4.22507757e-003
      8.38622334e-004 2.52561644e-003 -1.63947407e-003 -3.90652381e-003
      3.74482037e-003 6.83301082e-003 1.21436827e-003 1.50974025e-003
      4.47849091e-003 6.84289320e-004 1.49456051e-003 0. 6.27754722e-003
      8.37564527e-004 3.68069974e-003 -1.55688100e-003 2.66041607e-003
      2.00963067e-003 2.65767914e-003 6.93433103e-005 -4.74617962e-004
      4.11618967e-003 2.73710559e-003 -9.88355023e-004 1.35806971e-003
      -9.00476356e-004 -3.87946679e-003 0. 1.00944443e-002
      -9.46837012e-004 -3.23213963e-003 3.46344616e-003 -6.06680056e-003
      1.67010032e-004 5.54376747e-004 2.37714755e-003 1.08983215e-004
      1.01200142e-003 6.43088063e-003 3.54046328e-003 5.13481069e-003
      5.50337660e-004 2.08488503e-003 0. 4.36783163e-003
      -1.61307107e-004 8.51595309e-004 1.11685880e-003 -6.54256262e-004
      -5.13207493e-003 3.59301060e-003 1.59669190e-003 1.06358516e-003
      7.81405251e-003 4.55419905e-003 2.05807108e-003 7.07704283e-004
      4.49788291e-003 3.83446662e-004 0. 5.35137067e-003
      -5.44488290e-003 4.58947942e-003 4.45231237e-003 4.81820153e-003
      5.36668859e-003 -2.91336188e-003 5.73752448e-003 -1.61038153e-003
      -2.97879596e-004 -2.16280879e-003 1.38537202e-003 -1.50374323e-003
      1.06244802e-003 -3.39431711e-003 0. -1.11788244e-003
      5.04397962e-004 -2.09301990e-003 -1.71762693e-003 5.40277746e-004
      -1.52368902e-003 3.59019102e-003 -4.25805920e-004 3.98699846e-003
      7.77812384e-004 -1.48083689e-003 -2.77844071e-003 -2.26478558e-003
      2.43577105e-003 1.83083990e-003 0. 1.81302079e-003 6.12903852e-003
      -1.63696124e-003 -1.52934575e-003 -1.27902394e-003
      -2.14707945e-003 4.24996996e-003 6.24293042e-003 4.74505452e-003
      3.93554987e-003 -3.00925295e-003 -5.84157510e-003 3.36704939e-003
      4.44378937e-003 -5.55385789e-003 0. 2.94471323e-003
      -3.56506370e-003 4.23199032e-003 4.82200319e-003 7.42528960e-003
      4.34010429e-003 -2.80979206e-004 3.18835373e-003 3.30568058e-003
      2.58867559e-003 5.42361103e-003 -2.41989922e-003 6.65595429e-003
      3.85453668e-003 -2.78656674e-003 0. 2.06689886e-003
      -1.63685845e-003 7.87550816e-004 2.22715130e-003 6.27794396e-003
      2.93346331e-003 -6.44264463e-003 1.43125025e-003 -1.41396618e-003
      1.86348427e-003 -2.23756675e-003 -1.63689256e-003 1.92919828e-003
      3.69287725e-003 -2.37598259e-004 0. -9.02952219e-004
      -9.87628009e-004 -7.20819167e-004 -2.89574824e-003
      -1.49548298e-003 -3.81438644e-003 -1.83172000e-003 1.47895969e-003
      3.49672372e-003 -7.82613060e-004 -3.85048264e-003 2.99383863e-003
      2.15070182e-003 -3.01745231e-003 1.62949972e-003 0.
      9.74683091e-004 -2.21847673e-003 8.23227130e-003 6.37553306e-003
      2.03080635e-004 -3.82604630e-004 6.25678571e-004 7.34304590e-003
      4.73184930e-003 3.48702568e-004 1.77893077e-003 6.05381187e-003
      2.29611248e-003 -6.05688896e-004 8.42379406e-003 0.
      3.68115935e-003 -3.74323735e-003 5.20352786e-003 -1.07223517e-003
      4.14146204e-003 1.83183514e-003 6.54822309e-003 7.22730125e-004
      2.45063216e-003 -3.50574334e-003 -1.18178956e-003 7.30600720e-003
      1.51987129e-003 5.76518243e-003 -6.88909669e-004 0.
      1.37919351e-003 4.06782934e-003 -7.70438812e-004 -2.40045367e-003
      -3.10062827e-003 2.13017175e-003 -7.41823402e-004 -1.36666553e-004
      -6.57573983e-004 -8.33021768e-004 3.28295911e-003 -2.65648775e-003
      -3.58681963e-003 8.80935288e-004 1.38399293e-004 0.
      3.38635698e-004 5.06030046e-004 -4.57042828e-003 -2.11956794e-003
      4.09102393e-003 3.08776507e-003 -2.10726121e-003 -1.89019585e-004
      7.50240311e-003 -2.14915001e-003 -2.33714026e-003 -3.69821256e-003
      4.92873543e-004 8.84555373e-003 -2.99683399e-003 0.
      6.39530271e-003 5.53570781e-003 7.62952026e-004 -3.48935626e-003
      -5.93189802e-003 -7.59291142e-005 5.79315471e-004 -5.42659720e-004
      6.71547884e-003 2.51693564e-004 -9.39249701e-004 -2.53715878e-003
      2.08437908e-003 -4.57647402e-004 -1.72728417e-003 0.
      3.80691444e-003 4.94010234e-003 -2.79850257e-003 5.30600839e-004
      3.97124048e-003 5.15267579e-003 -1.27989246e-004 -1.49823411e-003
      7.47133745e-003 -5.58284111e-004 -9.00623563e-004 -7.10303837e-004
      -3.43761290e-003 2.96144909e-003 -2.55817338e-003 0.
      -4.47123530e-005 -5.15448442e-003 -5.23189781e-004 7.61914067e-004
      2.88528437e-003 -2.97129387e-003 5.14529832e-003 2.14918307e-003
      -4.79622418e-003 -3.45533295e-003 1.76422659e-003 1.40389078e-004
      3.06782778e-003 -9.97068011e-004 8.39948375e-003 0.
      -9.51701601e-004 -1.39472284e-003 4.26576193e-003 2.76455982e-003
      2.58888165e-003 -3.17113986e-003 -6.57613017e-003 1.74031139e-003
      1.33352671e-002 -1.73856493e-003 -1.16433669e-003 2.56862585e-003
      -6.29987102e-004 3.09962011e-003 3.58649599e-003 0.
      2.09237006e-003 -3.70221492e-003 -1.54371909e-003 -1.79210049e-003
      8.29589739e-003 1.82216405e-003 6.50424836e-003 6.73771929e-003
      4.18175296e-005 -2.24761828e-003 -5.83241344e-004 -1.36272877e-003
      -6.33447338e-003 5.43335313e-003 4.72077820e-003 0.
      4.62981081e-003 -5.88644249e-003 -2.66547338e-003 -2.47196353e-004
      -5.07963821e-004 -4.06886311e-003 1.87693338e-003 3.12753767e-003
      -3.29612498e-003 3.22446949e-003 -4.84074838e-003 -2.93061865e-004
      7.00699957e-003 5.03621064e-003 1.72503467e-003 0.
      -3.55087360e-003 -1.72317086e-004 -2.09773099e-003 1.04291784e-003
      4.06455481e-003 3.90752917e-004 8.22986010e-004 5.18265471e-004
      1.52563397e-003 2.52443156e-003 1.72671513e-003 3.99259152e-003
      -3.96955526e-003 1.42634177e-004 -2.57781451e-003 0.
      4.32091439e-003 -4.66172630e-003 -9.93271678e-005 5.14419796e-003
      9.52161034e-004 1.77672296e-003 1.11645844e-003 -1.19317358e-003
      4.11964860e-003 -2.00402504e-003 4.56086732e-003 5.26724092e-004
      5.94125176e-003 1.51730736e-003 -1.05044013e-003 0.
      -3.41755687e-003 1.02587766e-003 6.16223179e-003 4.56917658e-003
      -1.73502334e-003 -6.35884749e-003 -2.07252975e-004
      -4.09573223e-003 -3.68570397e-003 -7.54020596e-003 2.16583442e-003
      -5.11381589e-003 -7.23148463e-003 1.57959852e-003 7.93168973e-003
      0. -2.65551638e-003 -1.32794585e-003 -2.08995328e-003
      -3.40817287e-003 4.97283693e-003 2.11980962e-003 6.13884488e-003
      -2.83844140e-003 -3.06214322e-003 3.03227664e-003 -2.74987961e-003
      2.53945496e-003 -2.25342205e-003 -1.96377304e-003 8.00845772e-003
      0. -5.75070037e-003 1.24734768e-004 -3.86021355e-007
      4.17061755e-003 -1.11418776e-003 -2.70527950e-003 -1.27346441e-003
      1.22179545e-003 2.24078330e-003 -4.76826401e-003 6.74666371e-003
      -4.48829401e-003 -8.30059216e-005 4.68782819e-004 5.95725048e-003
      0. 4.84210410e-004 2.42616516e-003 6.64642593e-003
      -3.53178242e-003 1.19593367e-002 -1.15484893e-002 3.96088371e-003
      3.90567351e-004 4.84839827e-003 -2.27770000e-003 5.03559876e-003
      1.98423536e-003 1.37990492e-003 4.22431203e-003 -2.58329907e-003
      0. 7.74792978e-004 1.13669829e-003 -7.67712947e-003
      1.04657363e-003 1.89571129e-003 2.07373570e-003 -3.41603067e-003
      1.92101393e-003 2.35864776e-003 -3.35617084e-003 4.90785902e-003
      -1.17567787e-003 2.42278958e-003 -5.71755110e-004 2.39508133e-003
      0. -1.27763161e-003 -2.50644772e-003 5.65308798e-003
      2.53426027e-004 4.01475374e-003 5.70660573e-004 2.83916947e-003
      -2.79664365e-003 -3.86599946e-004 -1.26449834e-003
      -8.30756268e-004 3.95771815e-003 3.32259544e-004 1.13204238e-003
      2.24376126e-004 0. -3.80644226e-003 1.63281360e-003
      -4.50094114e-004 -6.33958087e-004 7.02322635e-004 1.57662726e-003
      6.14367751e-003 8.91748001e-004 8.41934816e-004 4.22082748e-003
      -9.88921849e-004 -2.57011992e-003 1.64623826e-003 -1.05147122e-003
      -4.04106686e-003 0. 4.91733605e-004 4.57806513e-003
      -1.39776699e-003 -4.46462538e-003 -6.70339307e-003
      -1.72716321e-003 -2.85214861e-003 1.86228586e-004 -1.04415929e-003
      -2.32204376e-003 3.14238644e-003 -2.52138707e-003 1.48363237e-003
      3.52682546e-003 -1.69022498e-003 0. -5.37015381e-004
      1.33061921e-003 -2.46223179e-003 -2.77715269e-003 1.85275497e-003
      -6.09193638e-004 3.72294057e-003 -1.83058647e-003 2.08905363e-003
      -1.63599485e-004 -9.43504914e-004 -3.92526807e-003 2.16443650e-003
      5.82649431e-004 7.65127596e-004 0. -5.97034123e-005
      -5.15421340e-003 3.49174184e-003 2.61330768e-003 -1.99920009e-003
      1.12733524e-003 2.62818113e-003 -2.40016310e-003 2.22340832e-003
      -3.26839392e-003 -2.61122105e-003 -3.02252825e-004
      -1.81267073e-003 1.42356742e-003 1.73151639e-004 0.
      -7.20164599e-003 6.27751462e-004 2.79365783e-003 6.60609920e-003
      -4.03377140e-004 -3.67974769e-003 3.37772979e-003 5.90054406e-005
      4.48630657e-003 -3.79232853e-003 3.89097171e-004 2.50854320e-003
      2.21352806e-004 4.40376159e-003 4.51162038e-003 0. 7.73556158e-003
      -1.24585815e-003 -3.58301331e-003 2.36987928e-003 7.43807899e-003
      3.02170101e-003 -2.17835372e-003 1.50989019e-003 -3.20317177e-003
      2.92112562e-003 1.74620247e-003 1.83989214e-005 -2.76893401e-003
      6.61408436e-003 1.00424206e-002 0. -1.07593834e-004
      4.38313419e-003 -4.11738903e-004 1.04582192e-004 -1.51420804e-003
      4.04269109e-003 2.90727429e-003 2.76152557e-003 2.91092531e-003
      -2.42889184e-003 -5.66385279e-004 6.65860064e-003 6.76351646e-003
      6.76329015e-003 -4.14448179e-004 0. -2.58730678e-003
      6.08618720e-004 2.50749965e-003 8.27759388e-004 -4.59024170e-003
      1.85973957e-004 -2.97437818e-003 -1.89560578e-005 -1.49442139e-003
      1.41305826e-003 -5.17905224e-003 6.63516636e-004 1.95509894e-003
      3.64517909e-003 3.96216987e-003 0. 4.88876645e-003 1.18108721e-004
      6.04025880e-003 -2.25905050e-003 4.13780427e-003 -2.96214799e-004
      -2.52556452e-003 -2.45929183e-003 9.73025628e-004 5.28314756e-003
      5.09698642e-004 -6.07317546e-003 -2.16485513e-003 -9.23270418e-004
      -4.48712241e-003 0. -1.12912268e-003 -3.78734292e-003
      -1.83753460e-003 2.08593602e-003 -2.97141983e-003 6.13560295e-003
      -3.28063127e-003 -3.22394795e-003 9.90823755e-005 6.24901569e-003
      1.59828621e-003 -4.95410117e-004 2.68709939e-003 4.54997271e-003
      -5.52270142e-003 0. -4.46070731e-003 -2.83936225e-003
      8.76806583e-003 8.80417880e-003 5.32626780e-003 6.16598129e-003
      4.89126774e-004 3.89076164e-003 5.05787600e-003 3.53091513e-004
      -3.39844078e-003 -7.74511416e-003 -3.69852001e-004
      -2.61747045e-003 1.97500968e-003 0. -1.32237328e-003
      -1.41922431e-003 -1.86266343e-003 -7.09748070e-004
      -1.18027492e-004 1.34180835e-003 -3.03157279e-003 8.32783710e-003
      -3.57257505e-003 6.85697561e-003 4.19949042e-003 1.08313852e-003
      -2.45209114e-004 2.80672288e-003 -1.75606809e-003 0.
      -3.34413606e-003 3.65212932e-003 2.11187266e-003 4.74321377e-003
      1.10472448e-003 -8.28059157e-004 -4.66642290e-004 5.50736790e-004
      1.41290284e-003 9.09339942e-005 5.01032500e-003 1.88959669e-003
      4.47162054e-003 -3.83839302e-004 1.83959404e-004 0.
      -1.91188348e-003 -4.88782534e-003 -2.24071695e-003
      -2.14227824e-003 -4.08353005e-003 4.18304373e-003 1.73254695e-003
      1.98716461e-003 2.28746692e-004 4.33190959e-003 2.44639209e-003
      7.40373554e-003 4.68446407e-003 7.62610277e-003 6.58275909e-004 0.
      -7.84808304e-003 -2.39269203e-003 -1.69210928e-003
      -9.76136827e-004 3.56858713e-003 1.05002066e-002 -2.99231871e-003
      -6.82234298e-004 6.32762909e-004 1.36363553e-003 4.29168670e-003
      2.13391660e-003 2.21327157e-003 2.47651478e-003 1.93309120e-003 0.
      -9.66350141e-004 -4.15149285e-003 8.42325017e-003 2.96978742e-005
      3.39266192e-003 -8.78123392e-004 5.55284880e-003 -8.99821403e-004
      1.26383326e-003 3.31513118e-003 3.91574623e-003 3.36528523e-003
      -5.66237431e-004 7.83754420e-003 4.49545775e-003 0.
      3.63115361e-003 5.44317125e-004 9.28763242e-004 -2.22248374e-004
      -1.00127817e-003 -1.27460633e-003 1.39526092e-003 9.08450165e-004
      -4.04138723e-003 -2.80800141e-005 7.45212892e-003 7.57956994e-004
      4.21006186e-003 -8.15926935e-004 -1.66811282e-003 0.
      8.21662322e-003 1.47405150e-003 -2.21322221e-003 2.75455252e-003
      2.21303292e-003 -6.70825783e-003 -5.64418640e-003 3.27597535e-003
      -3.06752813e-003 -1.77298221e-004 -7.07812794e-003
      -7.16853130e-004 7.74153601e-003 4.60844254e-003 1.87845738e-003
      0. 4.97863907e-003 2.06798012e-003 -1.62813126e-003
      2.76503153e-003 -1.30804593e-003 -3.88107146e-003 -7.13493559e-004
      -3.92371643e-004 7.63024809e-003 2.04597646e-003 -3.65613820e-003
      8.25610594e-004 9.93531779e-004 -5.73163060e-003 1.07627493e-004
      0. 4.16655093e-003 4.78843600e-003 -3.16525437e-003
      -4.96842992e-003 1.04603404e-003 -3.43639986e-003 -1.50839076e-003
      3.08406336e-004 8.48298194e-004 8.87788192e-004 2.04038734e-004
      -3.02191917e-003 -1.64291379e-003 1.43848313e-003 -1.69685693e-003
      0. -3.21618747e-004 3.63207213e-003 -2.35635741e-003
      4.76505840e-003 -6.78632222e-003 9.37911449e-004 -3.53823043e-003
      6.86277961e-003 -4.24282067e-003 -9.20773484e-004 -1.10182771e-003
      6.66132953e-004 4.77130665e-003 6.94363611e-003 -3.53545207e-003
      0. 4.98310692e-005 4.49400488e-003 6.49189344e-003 2.03376333e-003
      -1.50290449e-004 3.48479929e-003 7.58242270e-004 -4.16838704e-003
      -3.45670036e-003 -1.46987091e-003 -2.57378165e-003 2.84030009e-003
      -4.21263790e-003 -9.56127711e-004 1.18969893e-003 0.
      6.52821315e-003 1.71382155e-003 6.36631099e-004 3.53784929e-003
      -2.08354206e-003 1.26705866e-003 2.60459678e-003 -5.49222110e-003
      -1.12445303e-003 1.67832884e-003 3.68120312e-003 -5.13229927e-004
      2.58570234e-003 3.44828400e-003 7.19303638e-003 0.
      -2.09881016e-003 -1.44982233e-003 -5.55325951e-003 2.53277156e-003
      3.60538880e-003 7.05608120e-003 -7.13736191e-003 -4.54884581e-003
      -4.92530502e-003 3.23735783e-003 9.47228342e-004 3.84105166e-004
      1.03472290e-003 -5.98750739e-005 -2.09644611e-004 0.
      2.19610450e-003 -1.24439574e-003 1.35842594e-003 2.52621970e-003
      -1.51211268e-003 1.25774986e-003 4.40250523e-003 7.04865996e-003
      -7.16897426e-003 5.11130597e-003 6.06095837e-003 4.07982664e-003
      9.86158266e-004 2.61703879e-003 -9.17640806e-004 0.</_></support_vectors>
  <decision_functions>
    <_>
      <sv_count>1</sv_count>
      <rho>7.8762071111526950e+000</rho>
      <alpha>
        1.</alpha>
      <index>
        0</index></_></decision_functions></my_svm>
</opencv_storage>
